432 150
plane 0.029362 0.20948 0.17328 -0.46722 -0.22905 0.2042 0.44846 0.40311 0.55903 -0.074936 -0.64769 0.28136 -0.19822 0.69788 0.26999 0.07589 0.29688 -0.12309 -0.3468 -0.53548 0.06053 0.60565 -0.49934 -0.35024 -0.29411 0.169 -0.097337 -0.030923 0.21995 0.025478 -0.39176 0.46846 -0.056487 0.20031 -0.36674 0.075525 -0.75998 0.15333 -0.12638 0.29474 -0.11573 0.24919 0.18176 -0.5709 0.014005 -0.13815 0.40663 0.23979 0.12584 -0.15427 0.072509 -0.80597 0.16667 -0.37074 0.36449 -0.19911 0.26063 -0.013021 -0.12447 -0.6924 -0.040153 -0.047708 -0.44624 -0.07277 0.15548 0.20124 0.43849 -0.26901 0.17978 -0.054836 0.23677 0.45906 0.30165 -0.073502 -0.24229 -0.27629 0.18703 0.098336 0.143 0.31016 -0.039481 -0.54653 0.34984 0.35161 -0.36232 -0.40383 -0.35933 0.33261 0.20144 0.043328 0.22941 0.16958 0.46187 0.35226 -0.22813 -0.30497 -0.27527 -0.55344 -0.089265 0.12895 0.22019 -0.17152 -0.25695 -0.16762 0.050972 0.5685 -0.56909 0.17255 0.91118 0.054364 0.40603 0.13149 -0.36825 -0.067047 0.10344 -0.015634 -0.24369 0.34733 -0.23019 0.094985 0.16655 0.11837 -0.096751 -0.91704 -0.072806 0.24797 -0.42452 -0.049386 0.10239 0.34019 0.18978 -0.0011586 0.45001 -0.051201 -0.40076 0.022414 -0.45828 0.055357 -0.11273 -0.056331 -0.43714 -0.31867 0.29085 -0.20794 -0.1113 0.15791 0.067523 -0.17311 0.02035 0.07133
stupid -0.19506 0.34881 -0.17562 -0.069086 -0.52616 0.0023979 -0.47583 0.13928 -0.1343 0.15608 0.017546 -0.18468 0.21317 0.013283 0.13431 0.29765 -0.29072 -0.18613 -0.35098 -0.16296 -0.051648 0.57664 0.010115 -0.3085 0.25132 0.25034 0.42035 -0.45658 -0.31654 -0.69624 -0.47661 0.15672 -0.0032002 0.26618 0.052742 0.38035 0.2933 -0.3947 -0.047811 -0.071547 0.42998 0.080179 0.72276 -0.44588 0.3008 -0.28852 0.045428 -0.030694 0.50325 0.041266 0.58589 -1.1035 -0.56389 0.30024 -0.25686 -0.76402 0.012896 -0.40459 0.18881 -0.092871 0.019153 0.051001 -0.049583 0.0067947 0.4471 -0.45045 -0.032074 0.017304 -0.038148 0.0044051 0.24184 0.37385 0.30152 -0.095083 0.03339 0.22246 0.056186 0.22645 -0.22318 -0.044877 -0.42341 0.029205 0.0022495 -0.47975 0.065182 -0.16365 -0.26549 -0.11164 0.33478 -0.21197 0.090898 0.48287 0.23784 -0.01298 0.10688 -0.61423 -0.45055 0.11857 0.5277 0.11396 -0.16162 0.45865 -0.46024 -0.27074 -0.075672 -0.10026 -0.11252 0.42088 0.39229 0.2762 -0.26577 0.33531 -0.047718 0.14858 -0.099565 -0.14063 0.12092 0.5288 -0.017983 -0.1563 -0.25607 0.25694 -0.22706 -0.36549 0.17264 0.15307 0.15238 -0.2229 -0.24823 -0.17338 0.34462 -0.19706 0.21847 -0.027597 -0.39935 0.052384 0.40083 0.50898 -0.43278 -0.28111 0.13005 -0.143 -0.42966 0.54296 -0.28922 -0.2343 -0.048314 -0.49157 -0.10182 0.27164
egg 0.0067728 -0.56125 -0.20298 -0.38363 -0.070989 0.071926 -0.36408 0.61376 0.059944 -0.56772 0.58382 -0.078761 0.2744 -0.44772 0.13729 -0.49943 0.24184 -0.32765 -0.45236 -0.53848 -0.58677 0.48865 0.27422 -4.1931E-6 0.31377 0.76554 0.022131 -0.82358 -0.40203 -0.27331 -0.24049 0.39755 0.38342 -0.2056 -0.21695 0.10133 0.083971 0.030663 -0.49868 0.58471 0.2796 -0.12404 0.38786 -0.40579 0.023412 0.26694 0.24316 -0.47622 0.381 0.031808 0.5243 -0.48676 0.060842 -0.31446 -0.20036 -0.086086 0.23356 0.38818 -0.87803 -0.50873 0.092235 -0.094948 0.6312 -0.30501 0.49309 0.043309 -0.069756 -0.39706 2.9185E-4 0.023528 0.45575 0.27804 -0.061647 0.21307 0.51357 0.077118 -0.37812 -0.0731 -0.32065 0.19162 0.53355 0.11278 0.33101 0.11486 0.28848 0.48068 -0.043021 -0.38888 -0.2463 0.42233 0.34591 0.51693 0.5809 0.46232 -0.29107 0.33849 -0.24692 -0.15197 0.0010628 0.15623 0.30363 0.10567 0.25133 0.58381 0.58376 -0.18987 -0.3624 -0.053158 0.54122 -0.6372 0.080779 0.63019 -0.56829 0.34128 0.031954 -0.44728 0.022894 -0.10135 0.027868 -0.49427 0.47347 -0.065634 -0.058163 -0.32678 -0.011491 0.25126 -0.15501 -0.57022 -0.62105 -0.15881 -0.52672 0.19041 -0.2533 -0.10612 0.02889 0.27008 0.18172 -0.19887 -0.24428 0.086706 -0.27873 0.28424 -0.14572 0.13193 0.33128 0.47101 -0.23652 -0.47184 -0.42876 -0.052793
year 0.17614 -0.013281 -0.30753 -0.012192 0.031788 -0.2462 0.12151 -0.06327 0.053172 0.081541 -0.20251 0.16659 0.21141 -0.23596 -0.020934 -0.063663 -0.027724 -0.16506 0.055405 0.05029 -0.14616 0.32871 -0.16481 0.27588 0.64245 -0.091996 0.14537 -0.031043 0.11352 -0.087414 -0.14623 -0.17554 0.14343 -0.2694 -0.37262 0.004013 0.43509 0.25779 -0.46772 0.18865 -0.099649 0.022879 -0.10292 0.0092626 0.091834 -0.32242 -0.24268 0.20327 0.3901 -0.16754 0.15353 -0.38888 -0.10456 0.21079 -0.06898 -0.27086 0.32217 -0.20373 -0.094408 -0.053468 0.0013152 -0.37295 -0.27191 -0.11271 -0.039604 0.052141 0.080921 -0.0715 0.22908 -0.084895 0.2113 -0.044793 -0.13345 -0.13217 -0.29798 0.19954 0.15962 -0.49018 -0.014094 0.41499 0.003621 -0.092456 0.23016 -0.22346 -0.20687 -0.32494 -0.075052 0.20935 0.53731 0.0089218 -0.037069 0.46035 0.15125 -0.11373 0.43423 -0.011138 -0.26037 0.4359 -0.41065 0.15994 -0.35232 -0.18838 -0.29846 -0.24578 -0.051889 0.35377 -0.49965 0.056614 0.35129 0.067823 -0.010146 -0.19634 0.12977 -0.097136 0.16609 -0.10554 0.38488 -0.089935 -0.07125 -0.19265 0.32056 -0.0042268 -0.046687 0.083476 -0.23773 -0.27385 0.0097371 -0.1037 -0.09732 0.013689 -0.37151 -0.3215 2.5601E-4 -0.30114 0.17475 0.090203 0.057914 -0.17882 -0.09917 0.38373 -0.43473 -0.14665 -0.0011863 0.1978 -0.098199 -0.1667 0.023153 -0.28533 -0.18042 -0.2842
psychiatry 0.17263 0.069248 0.1191 -0.10449 0.2177 -0.23311 -0.86105 0.10491 0.0042813 0.21227 0.31585 -0.4314 -0.4773 -0.37988 0.43443 0.20334 0.27742 0.25466 -0.024353 0.2695 -0.064786 -0.50925 -0.79824 0.13687 0.25322 0.30391 0.22418 -0.75941 0.094963 -0.40029 -0.053857 0.11745 -0.32117 0.37029 0.3176 0.72559 -0.47442 -0.10686 0.23646 0.41631 -0.23642 0.031991 0.28851 -0.10987 -0.23828 0.087194 0.37006 -0.12709 -0.091014 -0.052227 0.30801 -0.29654 -0.021028 -0.17244 -0.46151 0.25553 0.21423 -0.15925 0.2427 -0.65326 -0.12085 -0.15761 0.055276 0.028011 0.37259 -0.14157 -0.038689 -0.22768 0.67641 0.21231 0.52804 0.25561 -0.01469 0.18655 0.3095 0.49513 -0.26919 -0.1548 0.44549 0.038017 -0.19465 -0.23992 -0.15781 0.038654 0.18306 0.2621 -0.091865 0.11371 0.039506 0.31733 -0.34838 0.2724 0.22109 -1.1192 0.29393 0.20049 -0.49279 0.47504 0.26092 -0.21686 -0.32242 0.036979 -0.30593 0.031413 -0.69232 1.2032 -0.07524 0.27674 0.29719 0.015308 -0.035557 0.39155 -0.36377 0.30541 -0.061597 0.34185 -0.025191 0.68171 -0.29884 0.049813 0.72362 -0.47629 -0.3081 -0.59867 0.26963 0.99784 0.47718 0.21778 0.014153 0.35129 0.035585 -0.15845 -0.35768 -0.74796 0.16938 -0.27533 0.28611 0.40398 -0.71691 -0.096834 -0.65307 0.13724 -0.28455 -0.30533 -0.19308 -0.20863 -0.85757 0.0030016 -0.020905 -0.3964
asylum 0.14842 0.97585 -0.35762 -0.0054141 0.39461 0.47046 0.12077 0.37887 0.30646 0.37413 0.15717 -0.35371 0.57742 -0.2705 0.83798 -0.063662 0.6027 0.10883 -0.20774 -0.48789 0.25657 0.31855 -0.092688 0.35139 0.07903 0.22039 -0.073985 -0.065564 -0.15338 -0.67195 0.53064 0.29576 -0.013484 0.11517 0.053071 0.2118 0.04228 0.079264 -0.42925 0.28867 -0.15058 -0.54543 0.33986 0.058324 -0.13734 -0.001176 0.10783 0.30744 0.019019 -0.23358 0.126 -0.37393 0.30201 0.094595 0.31427 -0.61069 -0.17628 -0.32309 0.70174 -0.62635 0.016153 -0.61677 -0.36013 0.12616 0.78507 -0.39369 0.18141 -0.55362 -0.25095 -0.079799 -0.030224 0.35028 0.21889 -0.87119 -0.16879 0.0027807 -0.1238 -0.52746 0.11164 0.39075 -0.10728 0.17444 0.25934 0.67468 -0.17534 -0.027483 -0.17825 0.41353 0.18145 -0.072335 0.26379 0.45275 0.51622 -0.24258 0.59966 -0.11435 -0.45961 -0.23192 0.11846 -0.26811 0.28049 -0.56003 0.039909 -0.4037 -0.43288 0.39823 -0.18242 0.28312 4.5593E-4 0.084958 -0.033559 0.67601 -0.60825 0.10278 -0.12316 -0.30525 0.45805 -0.12722 0.010918 -0.33714 0.28492 0.13315 -0.69493 -0.25465 0.097037 0.34255 0.30544 -0.57371 -0.2507 0.021266 0.072375 0.019706 0.32704 0.28067 -0.053478 -0.23202 -0.10791 -0.35855 0.061617 -0.58846 -0.19175 0.51342 0.29175 -0.80474 0.01721 0.4188 -0.62113 0.20935 -0.24098 -0.072326
manslaughter 0.073848 -0.32788 0.51504 0.43201 -0.080145 -0.42523 -0.33973 0.53306 0.051377 0.21916 -0.069235 0.058647 0.076609 -0.1461 0.33964 0.068216 0.025255 0.09142 -0.28607 0.81111 -0.50625 -0.49711 -0.41427 -0.089052 -0.01775 0.26796 0.39626 0.31991 0.044341 -0.0026766 -0.14855 0.13732 -0.022285 0.093495 0.0010675 0.037802 -0.96755 -0.26491 -0.41513 0.28243 0.26217 -0.24531 0.099885 -0.2616 -0.59501 -0.15949 0.041071 -0.36555 0.59832 -0.58265 0.68423 0.37164 -0.21248 0.033139 -0.10337 -0.31339 0.1916 -0.028361 0.23823 -0.40778 -0.0025617 -0.60563 0.1717 0.19264 0.6784 -0.10398 -0.053374 -0.71804 0.74183 -0.13486 0.52485 0.50812 0.11668 -0.16407 -0.33262 -0.18332 0.33248 -0.35184 0.16107 -0.061358 -0.0056725 -0.34184 0.46517 0.51264 -0.12666 -0.44513 0.61871 0.31217 0.15777 0.54014 -0.011791 0.42089 0.1062 -0.54221 0.45224 -0.31728 -0.43431 -0.016744 0.28561 0.32779 -0.33942 -0.55506 0.092994 -0.11186 -0.19044 0.4439 -0.56018 0.45154 0.26185 -0.19605 0.37415 0.946 5.3328E-5 -0.037513 0.51919 0.15047 0.47199 0.44099 -0.27468 0.23708 -0.1294 0.48914 -0.019284 -0.15577 0.30706 0.34239 0.60786 -0.15927 0.1914 0.2831 -0.35602 -0.38865 0.30576 -0.23078 0.61816 0.11735 0.26704 0.27717 -0.20775 0.19321 -0.35326 0.12299 0.038933 0.18264 0.35853 0.016561 -0.23878 -0.038669 0.027662 0.33035
music -0.067646 -0.012998 0.018632 -0.65142 -0.04863 -0.041359 -0.8546 0.30113 0.45425 -0.41502 -0.035733 0.17401 0.33179 -0.28841 -0.23625 -0.088083 0.1875 0.024335 -0.69461 -0.5428 -0.33614 0.4022 -0.6711 0.2068 0.17504 0.066593 0.5961 0.099525 0.27605 -0.18689 0.036263 -0.021748 0.13066 -0.23329 0.1347 0.2612 -0.019152 -0.1336 0.19087 -0.0093432 0.083077 -0.2207 -0.064998 -0.046756 0.016781 -0.040707 0.4353 -0.0020249 0.0094861 0.17799 -0.17433 -0.17603 -0.38722 0.41927 0.047603 -0.1163 0.37656 -0.71491 -0.03454 -0.011948 -0.11254 0.23264 -0.21993 0.022029 0.23719 -0.35926 -0.51889 0.032845 0.55439 -0.11093 0.35905 -0.23778 -0.20489 0.10138 0.020992 0.076983 0.34067 -0.11634 -0.25825 -0.13277 -0.51145 0.55691 0.21746 0.62465 0.29006 0.16185 -0.037085 -0.02855 0.026504 0.68862 0.20395 -0.53538 -0.043817 -0.047542 0.63035 0.12083 0.045566 0.5059 0.36068 0.1253 -0.32777 -0.14389 -0.06444 -0.16337 -0.23947 -0.32673 -0.24115 0.49653 0.79772 -0.27173 -0.22416 0.16472 -0.53892 0.22583 0.033488 -0.13166 0.41245 0.040297 0.18249 0.043671 0.51958 0.25167 -0.11231 -0.13195 -0.47456 0.37359 0.50884 0.14817 -0.17996 0.59669 0.14341 -0.47592 0.080291 -0.065206 -0.059502 0.04187 -0.49372 0.19854 -0.45988 0.12139 -0.29018 -0.389 0.27966 -0.44443 0.26727 0.50742 0.067282 -0.53912 -0.21917 0.05677
record 0.4863 -0.29118 -0.22592 -0.3785 0.34226 -0.15746 -0.16784 -0.19023 -0.026729 -0.27768 0.090084 0.13581 0.2779 -0.28336 0.1072 0.25614 0.39156 0.34654 -0.367 0.13645 -0.18933 0.75454 -0.58574 -0.27704 0.61464 -0.018605 0.25907 -0.077905 0.12177 0.44651 -0.037395 -0.048178 -0.11173 -0.16433 -0.62581 -0.057169 0.058405 -0.06743 0.24329 -0.21543 0.15208 -0.081331 0.23445 0.07681 0.06241 -0.48398 -6.4528E-4 0.053502 -0.014559 -0.17006 0.32596 -0.31187 0.20139 0.26918 0.62344 -0.50626 0.5614 -0.36717 0.22879 -0.14155 -0.42547 -0.24318 -0.081791 -0.26069 0.58849 -0.34494 -0.21922 0.18433 0.32801 -0.44984 0.28911 -0.27612 0.035018 -0.28037 -0.082437 0.42446 0.25034 -0.49284 0.055113 0.4331 -0.2171 0.079157 0.21817 -0.3698 -0.12204 -0.019383 0.21653 0.13931 0.082672 -0.50554 -0.080985 0.50633 -0.069389 -0.10861 0.12575 0.31366 -0.09084 -0.062264 0.2787 0.022534 -0.2449 0.098176 0.43376 -0.17689 0.17202 0.22625 -0.01898 0.073788 0.6281 -0.049898 0.024619 0.15087 -0.49343 -0.15975 0.25452 -0.023264 0.072348 0.29281 -0.11105 -0.3826 0.21406 0.0010165 -0.14074 0.016765 -0.12635 -0.4171 0.15889 -0.21632 0.071652 -0.14722 -0.40876 -0.22853 -0.63587 -0.38521 -0.16391 -0.45518 -0.5466 -0.40121 0.36607 0.40569 -0.44243 -0.10094 0.51287 0.083781 0.22482 -0.10652 -0.27272 -0.37443 -0.0060844 0.46753
energy -0.14651 0.23545 -0.30724 -0.24628 -0.12156 -0.20604 0.65774 0.34856 0.1467 -0.35386 -0.06544 0.14891 -1.5058E-5 -0.12694 0.36449 0.47949 0.064757 0.33579 -0.42593 -0.38849 -0.13762 -0.17781 -0.34189 -0.086434 -0.086152 0.39341 0.14697 -0.38894 -0.61987 -0.1691 -0.065705 0.29464 -0.48721 0.25532 -0.0027205 -0.2242 0.39528 -0.40017 0.19737 -0.26158 0.61855 0.1402 0.41894 0.27343 -0.026577 0.026227 0.44298 -0.2755 0.3884 -0.13265 0.044395 -0.14218 -0.02871 -0.02115 -0.19943 -0.21815 -0.035022 0.01082 -0.38384 0.37369 -0.27967 -0.18414 -0.50553 -0.020319 0.3407 -0.27372 -0.30805 -0.047902 0.26208 -0.31371 0.019063 0.060725 0.23812 -0.0042378 -0.058534 0.26396 0.069934 -0.70203 -0.2048 0.20984 -0.1089 -0.061181 -0.2622 0.11332 0.45958 -0.17642 -0.060184 0.18007 -0.064669 -0.18314 0.036196 -0.10421 0.4288 -0.047439 0.24125 -0.11023 -0.4902 0.43827 -0.1025 -0.24706 -0.16583 -0.47217 -0.41049 -0.29658 0.19195 0.20211 -0.0081942 0.039605 -0.010593 -0.13944 -0.12194 0.26868 -0.21241 -0.39105 0.07437 0.10955 0.29325 0.0020073 -0.2474 -0.47488 0.56342 -0.21912 0.45649 -0.10278 -0.68661 -0.16701 0.028474 -0.053579 -0.6014 0.33344 0.13167 0.12743 -0.27325 -0.22744 -0.37925 0.05718 -0.60159 -0.40446 -0.62095 0.5249 -0.14303 -0.79263 -0.030943 0.25286 -0.38002 -0.3517 -0.58781 -0.049476 -0.41346 0.1615
announcement 0.26147 -0.36412 -0.33883 -0.14018 -0.22247 -0.2217 -0.10638 0.014869 0.065275 -0.0476 -0.31616 -0.0094862 -0.095925 0.52998 -0.25053 0.3257 0.19261 -0.36889 -0.46815 -0.52606 -0.56344 -0.017011 -0.19911 -0.17216 -0.019587 -0.071196 -0.038426 0.24586 -0.25057 0.075794 -0.14616 -0.27364 0.12036 -0.48155 -0.45094 0.10455 0.33267 0.27243 -0.27036 0.11537 0.28496 0.0094767 0.09455 -0.36498 0.13085 -0.1039 -0.53642 -0.39394 -0.05791 -0.13577 0.48044 -0.3616 -0.10877 0.05065 0.022021 -0.090722 0.32852 0.15896 0.093593 0.012398 0.27554 -0.55302 -0.13546 -0.18996 0.14907 0.43053 -0.38481 -0.021302 0.44884 0.65989 0.30671 0.44418 0.11505 -0.13767 -0.22282 -0.086433 0.062606 -0.21806 0.059611 -0.01883 -0.34438 0.042126 -0.41516 0.10063 0.088277 0.28728 0.13469 0.145 0.069801 0.057051 0.3292 0.258 0.25329 -0.042075 0.29669 0.35669 -0.23184 0.070769 0.039091 0.073763 -0.24083 -0.6594 0.26797 -0.51695 0.030392 -0.10443 -0.70337 0.34303 -0.08953 -0.11479 0.16496 -0.17309 -0.14676 -0.23512 -0.12221 -0.27533 0.26932 0.2299 -0.16191 -0.34309 0.087694 0.084729 -0.14974 -0.38454 -0.16326 0.36621 -0.71258 -0.23464 0.060933 0.065664 0.24543 -0.13152 0.063655 -0.21262 -0.11541 0.34806 -0.16939 -0.24338 -0.23714 -0.027124 -0.49247 -0.16524 0.22891 0.12003 0.39079 -0.17788 -0.16804 0.46003 0.24547 -0.062772
mile -0.17929 0.62045 0.11589 -1.1598 -0.031835 -0.16613 0.28541 0.1013 -0.19272 -0.19837 -0.30619 0.054456 -0.33166 -0.25955 0.17142 -0.19264 -0.092156 0.22652 0.27645 0.50147 0.31946 0.18467 -0.34085 -0.22555 0.38253 0.078997 0.35475 0.13744 0.046524 0.45872 0.083792 0.044535 0.40325 0.35923 -0.49839 0.14243 0.082747 -0.11445 -0.39291 0.47362 0.3975 -0.2718 0.49788 0.0056241 0.37206 -0.4088 -0.092401 -0.1074 -0.60658 0.14874 -0.52924 -0.28053 -0.43033 -0.13649 -0.28122 0.096709 -0.0074422 0.39061 -0.34181 -0.38231 0.0435 -0.38171 0.17993 0.22576 0.36862 0.11429 0.043817 -0.23239 0.66325 -0.12641 0.61719 0.75132 -0.10028 -0.30137 -0.3073 -0.13931 -0.06266 -0.039563 -0.45798 0.41706 0.034216 -0.40272 0.31107 -0.10773 0.17945 -0.18299 -0.013979 0.29919 -0.23141 0.14098 -0.032883 0.33005 0.44408 0.3403 0.059618 -0.16559 -0.32838 0.77548 -0.56474 -0.13001 0.019092 -0.33602 0.28767 -0.3584 0.099697 0.22168 -0.25221 -0.073277 0.33707 0.32748 0.2169 0.24968 0.072892 0.55411 -0.0010506 -0.9074 0.44481 -0.10664 -0.22815 -0.36104 0.32951 0.20932 0.2283 -0.22412 0.085094 0.35662 -0.013745 -0.50727 -0.14093 0.0082851 0.15126 -0.72637 -0.27704 -0.36695 0.18528 -0.61287 -0.2681 0.049476 0.23408 0.16037 -0.0097655 -0.45382 -0.040189 0.10374 0.076675 -0.52419 0.14279 -0.56353 0.15065 0.16999
airport 0.36537 0.63209 -0.23861 -0.3173 -0.67942 0.45021 0.48479 0.2495 0.79338 0.19736 -0.53846 0.071402 -0.29054 0.37657 0.54089 -0.26334 0.20961 0.12828 -0.45327 -0.14367 0.01879 0.19229 -0.6722 -0.20032 -0.29911 -0.051365 -0.27219 -0.10225 0.32507 0.12374 -0.17829 0.073301 -0.20213 0.27686 -0.73983 -0.29362 -0.47364 -0.22295 -0.83484 0.78431 -0.16322 0.27008 0.44262 -0.49577 0.015504 -0.14087 0.1681 0.007559 0.14849 0.10885 -0.039485 -0.023277 -0.042246 -0.18068 0.1324 0.083401 0.41009 -0.24526 -0.18632 -0.46488 -0.23864 -0.30552 0.064857 0.050696 0.31101 0.26719 -0.011754 -0.22114 0.081805 -0.24946 0.54776 0.47023 -0.065237 -0.46597 -0.35963 -0.18925 0.33924 -0.076868 0.15912 0.37915 -0.60573 -0.14937 -0.090616 0.26794 -0.2014 -0.010105 -0.16565 -0.026125 0.16075 0.53791 0.30691 -0.019646 0.095627 -0.22945 -0.1932 -0.24247 -0.39708 -0.13493 0.12052 0.46872 -0.073771 0.123 -0.6625 -0.41301 -0.011034 -0.0032866 0.18181 0.14558 0.75682 -0.067873 0.34732 0.39189 -0.49479 -0.13037 0.25653 -0.08698 0.14629 -0.25846 -0.49292 -0.16778 0.34264 -0.078863 -0.045487 -0.55093 -0.13126 0.41292 -0.36875 -0.61312 -0.073416 0.25528 0.17053 -0.22641 0.54206 -0.34793 -0.30695 -0.36854 -0.33517 0.42047 0.16237 -0.0028304 -0.033805 -0.25096 0.25344 -0.13115 0.009049 0.2769 0.086021 0.20927 -0.27457 0.35858
population -0.06265 0.44904 -0.84162 -0.10694 -0.51522 -0.023926 -0.058154 0.26405 0.11918 -6.6887E-4 0.040475 -0.35098 -0.36893 -0.22231 0.046579 0.030804 0.66116 0.1132 0.05984 -0.067952 -0.38989 -0.11197 0.4623 -0.099049 0.032741 0.30729 0.22024 -0.53958 0.10545 -0.24737 -0.21615 -0.20829 -0.17113 0.38554 0.15275 0.18895 -0.22295 0.12362 -0.60052 -0.13415 -0.095456 -0.10304 0.28059 -0.38272 0.096235 -0.1573 -0.27132 0.41906 0.050442 -0.67489 0.28353 -0.70167 -0.24273 -0.29595 0.26058 -0.29483 0.22896 0.20015 -0.58548 -0.07321 -0.47816 -0.314 -0.4315 -0.18383 0.744 -0.032812 0.56052 -0.083917 -0.035419 0.24428 -0.011219 0.20821 -0.15737 -0.080283 -0.041274 0.29358 0.24786 0.36077 -0.40796 0.28587 -0.41273 -0.20099 0.49663 0.39118 -0.11934 -0.40186 0.13236 0.24652 0.17066 0.42195 -0.14253 0.10263 0.26842 0.11018 0.029905 -0.041611 -0.42767 0.29597 -0.046776 0.07631 0.041638 -0.52464 0.16629 0.26743 0.13016 0.083294 0.30893 0.33313 -0.091102 0.54371 0.031017 0.32849 -0.067149 -0.088401 -0.16279 -0.30944 0.66706 -0.25153 -0.22216 -0.13979 0.93938 -0.14419 -0.0081255 0.05346 0.30568 -0.32014 0.42865 -0.18049 -0.47269 0.43791 -0.38122 -0.034977 0.22626 0.094964 0.10848 -0.85548 -0.24337 -0.10524 -0.20384 0.2705 -0.25421 0.13164 0.43089 -0.071868 0.080813 -0.19519 -0.42395 -0.21518 -0.69068 0.21676
planning -0.38743 0.17911 0.052367 0.2071 -0.13767 -0.22872 0.4713 0.32795 0.25741 0.1782 0.17235 -0.029338 0.33228 0.73442 0.33191 0.12903 -0.0063091 -0.14113 -0.31202 -0.17351 -0.070834 0.056078 -0.045154 0.20905 -0.026912 0.50613 -0.018781 0.031631 -0.0060957 -0.2686 0.005696 0.26279 -0.22757 0.089496 -0.5428 0.10458 0.32586 0.4218 -0.31225 0.27931 0.15152 0.069082 -0.078075 -0.40584 0.19252 -0.25285 0.0043487 0.028501 0.031462 -0.12683 0.29189 0.032772 -0.17325 0.11475 -0.073926 -0.32548 0.094887 0.092112 0.31496 -0.19424 -0.45502 -0.31921 -0.31042 -0.27561 0.15081 -0.24269 -0.30977 0.1469 0.71085 0.12977 0.51278 0.068593 0.13092 -0.21921 -0.3005 0.30909 -0.25655 -0.41849 0.06204 0.11891 -0.25161 0.28349 -0.43478 -0.020394 -0.041424 -0.18096 0.093031 0.035724 0.35574 0.077216 -0.094926 -0.23964 0.39826 0.034793 0.31895 -0.15035 -0.34556 -0.091382 0.1019 0.1072 0.098181 -0.38331 -0.097381 -0.24981 -0.39392 -0.036973 -0.089682 -0.039597 0.25599 -0.10606 0.095846 -0.38042 0.070664 -0.10875 -0.071389 -0.2653 0.046792 0.25902 -0.065032 -0.061583 0.12881 -0.13377 -0.15799 0.21323 0.06872 0.09634 0.351 -0.50462 0.046619 0.20191 -0.10604 -0.17263 0.31106 -0.32044 -0.14788 -0.073925 0.090721 0.28825 0.062053 -0.12666 -0.041022 -0.11178 -0.021989 -0.45001 -0.062602 0.089996 -0.26758 0.070993 -0.31578 -0.27475
canyon -0.16711 0.15266 0.063436 -0.74927 -0.14221 0.057396 -0.12007 0.28389 0.57096 -0.036477 -0.049603 0.16985 -0.14978 -0.022938 0.14095 -0.33013 0.30229 0.40838 0.04702 0.20722 0.17072 0.3934 -0.28266 -0.22662 -0.67877 -0.68137 0.2065 0.097959 0.068473 0.1589 -0.54124 0.46848 0.31659 0.45807 -0.46356 0.17317 0.14193 0.34251 -0.082042 0.089003 0.56404 -0.029108 0.38278 -0.3626 0.013368 -0.46719 0.56196 0.28227 -1.0302 0.062503 0.021399 -0.28846 0.06578 0.043176 -0.054981 0.15392 -0.18163 0.29543 -0.077678 -0.24031 0.4795 -0.38615 0.19238 0.56829 0.44353 -0.14265 0.08283 -0.20514 0.080731 -0.57564 0.78225 0.15639 0.031716 0.033609 -0.25056 0.0095921 0.48461 -0.091704 0.16085 0.061286 -0.15766 0.012413 0.16226 -0.050379 0.38735 -0.22435 0.1725 0.33164 -0.28599 0.25906 -0.27532 0.12039 0.51718 0.33666 -0.33975 -0.12951 -0.10744 0.36393 -0.53035 0.0244 0.19011 -0.04369 0.34872 0.14632 -0.13243 0.16669 -0.49686 0.17773 0.51745 -0.30605 0.29024 0.45665 -0.13269 0.37393 0.010612 -0.41311 0.13016 -0.13511 -0.051226 -0.053002 0.5947 -0.081594 0.30739 -0.27943 -0.042033 0.049818 -0.19834 -0.3725 0.1553 0.62271 -0.58857 -0.0095847 -0.054908 -0.040126 0.31696 -0.080787 -0.096669 0.053994 0.027355 -0.20114 -0.12676 -0.51312 0.035938 0.38587 0.21676 -0.14994 -0.55917 -0.10952 -0.8153 0.27464
delay 0.034693 0.16778 -0.22185 0.13439 0.014113 -0.28905 0.40313 0.27947 0.27845 0.13499 0.37268 0.50922 -0.42637 0.3425 0.28402 0.10349 0.080937 -0.41486 -0.25307 0.085095 -0.51456 0.060374 -0.16198 0.31022 0.35598 0.55319 0.023026 -0.19928 0.023138 -0.18499 0.096205 -0.17985 0.41028 0.041918 -0.77201 -0.095345 0.078703 0.35509 -0.068542 0.10552 0.50966 0.32987 0.61699 -0.71294 0.13505 0.13881 0.014952 -0.12089 -0.21102 0.14552 0.21928 -0.075251 -0.17718 -0.020109 -0.019072 -0.37339 0.096652 -0.09765 0.54758 -0.263 -0.36368 -0.1023 -0.043588 -0.3969 0.3861 0.10033 0.06159 -0.23915 0.6612 0.058376 0.066437 -0.037732 0.09104 0.0027399 0.071767 0.095441 -0.16369 -0.054418 -0.19749 -0.39409 0.12711 0.28428 -0.027944 0.15036 -0.19699 -0.028933 0.26836 0.37497 0.046803 -0.33258 0.12126 0.40026 0.41151 -0.074492 -0.16251 0.022156 -0.50845 0.016275 -0.054255 0.23735 -0.25433 -0.62824 -0.08351 -0.2889 -0.52627 0.0868 -0.44622 0.21989 0.49756 0.17103 -0.3307 0.49437 0.13031 -0.33085 0.05326 -0.21165 -0.0030258 -0.027706 -0.10137 -0.48055 -0.28346 0.032574 -0.11992 -0.46047 0.092928 0.20829 -0.36563 0.06664 -0.026187 -0.40876 -0.51302 -0.4094 0.24458 -0.037643 -0.24137 0.28777 -0.164 -0.097503 0.24632 0.049099 -0.02316 -0.18338 0.056444 -0.6182 0.17282 -0.36506 -0.2475 0.3173 -0.012694 0.13388
size -0.18729 -0.069572 0.023166 -0.060453 -0.16395 -0.079392 -0.10673 0.31065 0.36754 -0.090312 0.092688 -0.070212 -0.09199 0.088189 0.067522 -0.18001 0.41964 -0.24519 0.15369 -0.60626 0.020531 0.28738 0.10042 -0.088134 0.27746 0.21778 0.29987 -0.63832 -0.21229 0.25415 -0.39788 0.20428 0.017193 0.21321 -0.45033 -0.1288 -0.28672 0.38083 -0.44741 0.28707 0.36962 -0.065571 0.50392 -0.15568 -0.071137 0.061597 0.16285 -0.026207 -0.13345 -0.22889 -0.32621 0.15531 -0.70887 0.090391 -0.17541 -0.48795 0.22218 0.17271 -0.42306 0.13959 -0.13739 0.056439 -0.14962 -0.46632 0.70784 0.41255 -0.14443 -0.30731 -0.0060221 0.57393 0.40727 0.17395 0.16594 0.091536 -0.41672 0.62135 -0.13563 0.089401 0.036769 0.17469 -0.5597 -0.20785 0.048585 0.33137 0.029253 -0.48419 -0.28519 0.022763 -0.25403 -0.071114 -0.038421 0.35957 0.311 0.12601 -0.31436 0.083849 -0.01012 0.23815 -0.38106 -0.28303 0.014326 0.092582 0.079062 -0.23909 -0.2606 -0.018836 -0.3116 0.031789 0.28457 0.090385 0.025272 0.36253 -0.11574 0.37181 -0.30417 -0.17876 0.34708 -0.543 0.074541 0.019259 0.36338 0.25083 0.38161 -0.23445 0.055118 -0.85833 0.11447 0.11008 -0.34338 0.44694 -0.35683 0.027411 -9.7903E-4 -0.10121 0.056017 -0.61825 0.26839 -0.27696 -0.35217 0.3038 -0.23475 -0.049844 0.40608 0.066515 0.28352 -0.05092 -0.42781 -0.034431 -0.032931 -0.16541
peace -0.74964 0.11932 -0.04564 -0.62475 0.52675 0.20212 -0.20065 0.18949 0.77872 0.11082 -0.29291 -0.38498 0.52636 -0.15837 0.23327 1.0714 0.013932 -0.14964 -0.13099 0.065828 -0.29758 0.32567 0.32299 0.073222 -0.32297 -0.37573 0.49207 -0.27398 -0.27775 -0.3129 -0.21387 -0.80907 0.16351 -0.29262 -0.17277 0.42551 -0.21703 0.17593 -0.42086 -0.10363 0.40141 -0.0090524 0.052259 -0.37436 -0.31588 0.3426 0.64545 -0.03166 0.64662 -0.070931 0.60064 -0.34002 -0.048682 0.17148 0.22582 -0.10677 0.26223 -0.082902 0.24527 -0.4952 0.044005 -0.042758 -0.040503 0.22889 0.065322 -0.080295 0.0064466 -0.26022 0.13472 -0.6036 -0.15614 0.22427 -0.52095 -0.36653 0.44346 -0.21854 0.055583 -0.19227 -0.41772 0.3032 -0.012634 -0.077032 -0.41617 -0.32737 0.0064471 -0.50696 0.17485 -0.077051 0.18565 0.23991 -0.11391 -0.15046 0.050328 0.20634 0.41307 0.51981 -0.35504 -0.11339 0.26149 0.088789 -0.24713 -0.55773 0.19981 -0.39802 -0.092207 0.36988 -0.22346 0.55722 0.16764 0.58026 0.046225 0.53811 -0.044882 0.62148 -0.16465 0.17307 0.67761 0.58845 -0.545 0.10051 0.57227 -0.20352 -0.17335 -0.59793 -1.0351 0.083508 -0.25569 -0.17917 0.019941 0.68266 -0.32415 -0.1266 2.95E-4 -0.070114 0.49691 0.12275 -0.54011 0.17955 0.30851 -0.18655 -0.30899 -0.33048 0.51266 0.17858 -0.06549 -0.33337 -0.52968 0.30705 -0.10013 0.20404
science -0.1984 0.28165 -0.18978 -0.16403 -0.055056 -0.39351 -0.26925 -0.12067 0.26583 -0.15026 -0.028864 -0.72166 -0.20715 -0.0032419 0.13714 0.27955 -0.21276 0.20213 -0.18827 -0.21304 -0.4643 -0.19456 -0.64732 0.41903 0.34267 0.53397 0.34278 -0.28753 -0.1744 -0.39997 -0.18291 0.14679 -0.11241 0.090741 -0.092939 0.48255 0.058893 0.051684 0.3899 -0.12388 0.17808 0.28472 -0.27613 -0.37808 -0.28044 0.024756 0.39662 -0.0077298 -0.1497 -0.084035 -0.08834 -0.23974 -0.22195 0.038808 -0.14175 -0.34193 0.3841 0.41531 0.25373 -0.37512 -0.34945 -0.55233 -1.5644E-4 0.29349 -0.17333 -0.50958 0.37849 -0.15089 0.52307 0.074304 -0.022923 0.072337 0.14848 0.36853 0.49188 0.048984 -0.19881 -0.28515 -0.043231 -0.15013 -0.018204 0.23486 0.34798 0.26422 0.61882 -0.32139 -0.26573 -0.15218 0.18565 0.15916 0.094204 0.51413 -0.1681 -0.31744 0.19435 -0.13056 -0.64334 0.051449 0.043691 -0.75532 -0.28504 -0.048705 -0.043318 0.1529 -0.29337 0.21066 -0.086752 0.39854 -0.21882 -0.10961 -0.12218 0.11526 0.17405 0.25426 -0.25461 0.17781 0.2255 4.8757E-4 -0.071079 -0.0045195 0.53521 -0.56376 0.20136 -0.74619 -0.036966 0.21788 -0.037789 0.077609 -0.17061 0.36663 0.42446 0.067716 0.17438 -0.35696 -0.33077 -0.19133 0.081772 0.0424 -0.63559 -0.23834 -0.54226 -0.2055 -0.18536 0.23549 0.031529 -0.063581 -0.77066 -0.51742 -0.2641 -0.23923
dawn 0.48663 -0.075718 -0.15451 -0.35118 -0.34066 0.20589 0.03984 0.57454 0.53257 -0.51325 0.10072 -0.067364 0.11738 0.39878 0.43329 -0.12309 0.13894 -0.19126 0.12643 0.27407 0.029614 0.26449 -0.082814 -0.13432 0.64582 -0.15317 0.32011 0.37943 0.35446 -0.004621 -0.38797 -0.15508 0.077684 0.060268 -0.46757 0.19046 -0.14937 0.2152 -0.5302 -0.048299 0.28201 0.15999 0.12621 -0.14529 -0.25851 -0.38928 0.28187 0.0059324 -0.42445 0.12572 0.38048 -0.76256 0.069648 -0.034914 -0.50536 0.21664 0.088433 0.42416 -0.2804 -0.35721 0.03889 -0.18356 0.21024 0.09105 0.32033 -0.20626 7.5375E-4 0.20456 -0.065656 -0.044277 0.32163 0.57609 -0.11425 0.06731 -0.061891 -0.23519 -0.21877 0.10915 -0.29782 -0.016257 -0.22648 -0.11536 0.23261 -0.11896 0.0021013 0.27067 -0.17797 0.22072 0.1138 0.69433 0.39705 -0.081629 0.1146 0.38564 -0.38637 -0.35823 0.05607 -0.011839 -0.35627 0.50929 -0.33214 -0.66925 -0.4812 -0.16974 -0.049728 0.20117 -0.63918 -0.088197 0.33967 -0.20137 -0.18382 0.12699 -0.034528 0.29498 -0.26718 -0.17419 0.59617 0.41631 -0.019203 -0.49322 0.2196 0.31725 0.098706 -0.21672 -0.56279 0.19935 -0.14226 -0.87231 0.13591 -0.18171 -0.15864 0.18194 0.27226 -0.39841 -0.20932 0.25234 -0.006818 -0.037386 -0.15108 -0.23028 -0.051826 -0.17182 0.66067 0.099404 0.0012261 -0.0070464 -0.13401 0.012277 -0.11532 0.25535
brother -0.082409 -0.17848 -0.031657 0.29002 -0.12969 0.29435 0.056156 0.085926 -0.03904 -0.23705 0.22186 0.134 0.20458 -0.015359 0.25188 0.47464 0.52507 -0.024107 0.48764 -0.14801 -0.22261 -0.029259 -0.19136 -0.16735 -0.18165 0.18263 0.46444 -0.59018 -0.11965 -0.13837 0.037475 0.19876 0.062958 -0.23593 -0.74872 -0.15648 -0.20844 -0.89443 -0.10057 0.064541 0.40904 0.29373 0.01644 -0.25467 0.10554 -0.1576 0.20317 0.29865 -0.31507 -0.11313 0.5241 -0.47079 -0.64626 0.14349 -0.0053909 0.097099 -0.30467 -0.22635 0.14716 -0.20212 -0.55867 -0.05297 0.4391 -0.045463 0.62741 -0.099151 -0.040245 -0.18571 -0.2692 -0.13501 0.39849 0.66184 0.2774 -0.023427 -0.088124 -0.0014497 0.184 -0.047808 0.30726 0.068437 -0.048355 -0.022741 0.043518 0.10134 -0.18456 -0.15072 0.033391 0.27416 -0.061799 0.77186 -0.1068 -0.3059 -0.10206 0.15588 0.69301 -0.10542 -0.14596 0.18206 0.088726 -0.28493 -0.11041 0.10573 -0.059205 -0.476 0.013115 0.66658 -0.97648 -0.0075521 0.29552 -0.20759 0.5723 0.25394 -0.3401 -0.077033 0.14312 0.22732 -0.032874 0.26421 0.13436 -0.15239 -0.13425 0.025291 -0.11071 0.48366 -0.18095 0.21596 0.2148 -0.41325 -0.056037 0.019328 -0.17201 -0.15328 0.44098 -0.17685 -0.11087 0.0075641 -0.41538 0.17131 -0.14677 -0.11422 -0.26532 -0.044048 0.26598 -0.41666 0.3643 -0.24723 -0.26661 0.14267 0.078967 -0.38308
wine 0.25597 -0.48328 0.058511 -0.52599 0.03064 0.0096425 0.34867 0.70322 0.42417 -0.20773 -0.15888 0.041101 0.2457 -0.009178 0.36041 -0.44955 -0.24769 0.031501 -0.4156 -0.0055923 -0.26735 0.49841 0.074738 -0.3054 0.55003 0.3341 0.072357 -0.3846 0.12116 0.128 -0.47165 0.016157 -0.16261 0.18323 0.22742 0.36245 -0.25748 -0.29768 -0.3372 0.24945 0.2469 -0.36114 0.37918 -0.13342 0.015049 -0.31951 0.14675 -0.096532 0.20355 -0.11029 0.37846 -0.042548 0.026747 0.30491 0.19212 -0.19618 0.42459 -0.26925 -0.51684 -0.35486 0.073264 0.10208 -0.20268 0.34929 0.42799 0.29146 -0.64097 -0.067861 -0.13533 -0.43331 0.44769 0.085543 -0.32707 -0.19514 0.18498 0.63649 0.2258 -0.43464 0.59873 0.50904 -0.18901 0.33886 0.3132 0.229 0.51446 0.10658 0.11172 -0.4115 -0.085426 0.16309 -0.13034 -0.27617 -0.090162 0.13123 0.10798 0.11782 0.29939 0.59321 0.31534 -0.20032 -0.35879 0.10455 -0.49748 0.097703 -0.022875 0.11919 -0.22837 -0.24522 0.25398 -0.10458 0.37035 0.73144 0.44096 0.13866 0.3185 -0.43943 0.10979 -0.12144 0.18458 -0.38803 0.72611 -0.25578 0.022088 -0.40479 -0.15585 0.47062 -0.0035864 9.0668E-4 -0.36958 0.81131 -0.31077 -0.35982 0.31285 0.17755 -0.015652 0.41418 -0.081445 -0.16993 -0.48733 0.036947 -0.21843 -0.29622 -0.042964 -0.27424 0.46404 0.1521 -0.036128 -0.34319 -0.69349 0.064259
object 0.042092 -0.016621 0.14339 -0.19659 0.10089 -0.044675 -0.15931 -0.086081 -0.38243 -0.4587 -0.11262 -0.0097288 -0.0716 0.25707 0.042608 0.088652 0.267 -0.17619 -0.1178 -0.080593 0.0051037 0.060107 -0.50883 0.24231 -0.0148 -0.064905 0.21829 -0.014282 -0.4802 -0.16608 0.10456 0.31376 -0.050766 0.21199 -0.21237 0.43945 -0.094795 0.21201 -0.72209 0.035619 0.39106 -0.019268 0.531 -0.53231 0.015085 -0.17765 0.42372 -0.30142 -0.054192 -0.17618 0.25013 -0.20086 -0.29071 -0.14333 -0.16806 -0.40172 0.071921 -0.22719 0.048791 -0.23972 -0.14196 -0.050224 0.077077 -0.092491 0.64544 -0.35576 0.23173 -0.0021636 0.32435 -0.042578 0.045467 0.41614 -0.29521 -0.079032 0.18653 0.10659 0.12046 0.33209 -0.19189 0.029424 -0.19407 0.30513 0.068789 0.32548 0.13996 -0.14493 -0.12437 -0.42831 -0.0069714 0.035411 0.11131 -0.0025163 0.27084 0.3568 0.13818 0.084127 -0.17055 0.067591 -0.47674 0.19878 0.1283 -0.28449 0.29453 -0.52747 -0.44808 0.29875 -0.38762 0.25599 0.11647 -0.21819 0.11727 0.49741 0.031001 0.29038 0.059245 -0.033776 0.087793 0.35224 0.38857 -0.17281 0.12637 -0.17775 0.085314 -0.30765 0.22831 -0.2576 -0.20321 -0.042129 -0.04805 0.31033 0.13635 -0.31916 -0.05207 0.3122 -0.29111 0.18044 0.39633 0.14316 -0.258 0.17776 -0.021774 -0.4965 0.23521 0.12464 -0.27218 0.28975 -0.40667 -0.40866 0.32937 0.13724
attitude -0.011188 0.25071 -0.17244 -0.1362 0.049661 0.53541 -0.37811 0.10756 -0.079259 0.12052 -0.14074 -0.42335 -0.058096 0.50477 0.27797 0.56855 -0.22931 -0.28758 -0.31822 0.15278 -0.025475 0.22624 -0.35875 -0.3422 0.14128 0.41227 0.44836 -0.28323 0.076469 -0.21166 0.12005 0.08814 -0.31698 0.29259 0.25928 0.25108 0.019685 -0.032731 -0.48756 -0.057888 0.057319 0.24975 0.46581 -0.35184 0.10459 0.085533 -0.43089 0.19068 0.0204 -0.22602 0.095804 -0.44346 -0.33686 0.083415 -0.16489 -0.26828 -0.011952 -0.23667 -0.34808 -0.073197 -0.17394 0.073605 -0.05673 -0.2423 0.2031 -0.67986 -0.093532 0.17746 0.16711 0.20154 -0.068583 0.34183 -0.29554 -0.43953 -0.095253 -0.15537 -0.51663 0.089567 0.27135 -0.10888 -0.48219 0.37769 0.1514 0.16908 0.16398 -0.27313 0.043876 0.70804 -0.089672 -0.31509 0.11282 0.3241 0.088745 -0.13171 -0.096724 -0.19304 -0.55788 0.36802 0.32989 -0.16262 -0.19352 0.065692 -0.048185 -0.29865 -0.26813 -0.018277 -0.56742 0.34094 0.25667 0.27006 0.062105 0.0884 -0.57586 0.68726 0.28857 0.087466 -0.03291 0.36211 -0.10645 -0.15496 0.36228 -0.19117 -0.31703 -0.087091 0.074412 -0.31285 -0.017237 0.089099 -0.21897 0.3907 0.45983 0.16576 -0.058445 -0.057491 -0.12461 -0.079169 0.20898 -0.36915 0.11003 -0.14992 -0.1759 -0.39131 0.25775 0.17607 0.1541 -0.22019 -0.37903 0.11441 -0.22623 -0.26681
treatment -0.10825 0.2817 -0.21922 -0.34154 -0.046676 0.26393 -0.31426 0.10333 -0.26172 0.09544 0.49865 -0.19513 -0.44559 -0.037007 0.23841 0.25362 -0.17158 0.25814 0.060148 -0.29958 -0.041864 -0.32365 -0.23567 0.22491 0.44163 0.50844 -0.022086 -0.16246 -0.40866 -0.35495 0.22619 0.27939 0.084987 0.23761 0.053366 0.21255 -0.091638 0.15633 -0.30947 0.24228 -0.12727 -0.51815 0.21507 -0.1879 0.050776 0.71274 -0.35439 0.087865 0.25294 -0.41815 0.40876 0.21254 0.2768 0.16625 0.016433 0.31908 0.30061 -0.27078 0.1916 -0.085696 0.095548 -0.30776 -0.10363 -0.11251 0.26405 -0.016354 0.0020462 0.33016 0.60973 0.16629 0.28574 0.62546 0.30282 -0.27567 -0.4416 0.03459 -0.046806 -0.22098 -0.06711 0.3931 0.17054 0.22424 0.082731 0.52195 0.46278 0.24687 0.048857 0.81006 0.0123 -0.28886 -0.12666 0.15382 0.32229 -0.28467 0.24294 -0.50174 -0.75498 0.31548 -0.041305 0.07566 -0.21299 -0.23411 -0.030657 -0.15159 0.09267 0.4802 -0.098767 0.15525 0.20855 0.17429 0.15228 0.68045 0.21506 -0.14836 0.23737 -0.15031 0.050034 0.18641 -0.2844 -0.20487 0.34923 -0.27769 -0.27478 -0.048779 0.14783 0.51002 -0.04732 -0.35969 -0.28645 -0.19157 -0.24321 0.19346 0.15222 -0.26566 0.68425 0.13858 -0.049077 -0.32297 -0.22214 0.029779 -0.1336 0.1118 -0.1778 -0.27366 -0.34462 0.11664 -0.60496 0.68417 -0.54102 -0.0081325
flight 0.44421 0.28945 0.036444 -0.27155 -0.32575 0.13424 0.36363 0.24039 0.83001 0.17093 -0.59698 0.52603 -0.22644 0.43371 0.2808 -0.28632 0.11088 -0.23002 -0.43778 -0.30839 -0.076318 0.41526 -0.6997 -0.50111 -0.10009 0.38852 -0.035951 -0.11623 0.035414 -0.0027247 -0.44429 0.29394 -0.32647 -0.0048048 -0.39179 0.17278 -0.90065 0.047349 -0.32534 0.84751 -0.019821 0.39683 0.1781 -0.48688 0.15618 0.14981 0.19753 0.15992 0.22442 -0.07534 -0.094085 -0.27977 0.086248 -0.069439 0.30265 0.063442 0.55246 0.085467 -0.070853 -0.62294 -0.34778 -0.32003 -0.19733 -0.17914 0.10134 -0.1586 0.18456 -0.25509 0.23454 -0.13058 0.53572 0.37588 0.33336 -0.054951 0.19902 -0.28881 -0.15009 0.28259 -0.19594 0.32274 -0.1665 -0.27333 0.22742 0.54394 -0.25775 -0.19903 -0.038291 0.49775 0.32135 -0.12775 0.44723 0.27427 -0.11912 0.21094 -0.43415 -0.55448 -0.38358 0.064628 -0.088817 -0.28875 -0.077997 -0.15893 -0.51399 -0.030939 0.098441 0.068016 -0.082891 0.66304 0.85346 0.083913 0.13662 0.48593 -0.44359 -0.19204 -0.098013 0.049291 0.050709 -0.10924 -0.41483 9.629E-4 0.26578 0.038007 -0.064566 -0.78826 0.17943 0.050085 -0.66827 -0.1839 0.24956 -0.061767 0.021493 -0.19401 0.72505 -0.25588 -0.010759 -0.25619 -0.53978 -0.049141 -0.025248 -0.053825 -0.46192 -0.0029957 0.54747 -0.20532 0.096026 -0.073733 0.17515 -0.0023462 0.010236 0.060887
forest -0.16379 0.22591 -0.39118 -0.53495 0.1106 -0.25423 0.047446 0.45065 -0.095612 -0.22312 -0.098012 0.14942 0.038533 -0.026586 0.25657 -0.031962 0.34587 0.2111 -0.25471 0.13462 -0.25139 0.46383 0.074083 -0.24754 -0.36755 -0.29161 -0.086489 -0.15683 0.045799 -0.13194 -0.27503 -0.012186 -0.28964 0.17679 -0.41163 0.50584 0.017574 0.33165 -0.40891 -0.38697 0.11787 0.2776 0.41075 -0.17272 0.054983 0.088684 0.68426 -0.17447 -0.33752 -0.10871 0.27441 -0.38384 0.5289 -0.051753 0.029632 -0.12308 0.13987 0.38127 0.23823 -0.28112 -0.098328 -0.5278 -0.48617 0.31856 0.16804 -0.2611 0.0082476 -0.19436 0.40956 -0.63153 0.37277 0.39372 0.53171 0.019427 -0.2261 0.094191 0.52264 0.33331 -0.42819 0.062581 -0.018913 -0.0099073 0.63336 -0.22758 0.26023 -0.41479 0.19619 -0.028103 0.078175 0.88841 -0.03183 -0.24187 0.53024 0.62455 0.20195 -0.24116 -0.23644 0.48581 -0.5822 0.18304 -0.30458 -0.28105 0.46257 -0.018619 0.17618 -0.3363 0.035707 -0.14768 0.012716 -0.043942 -0.13119 0.33814 -0.04344 -0.1439 0.36252 0.16637 0.42802 0.075649 -0.27502 0.070738 0.52368 0.021478 0.24422 -0.40975 0.055387 -0.041533 0.26276 -0.63355 -0.45702 0.69516 -0.38761 0.080592 -0.0063646 -0.15082 0.17469 -0.34975 -0.058113 0.10525 -0.35816 -0.058223 0.032274 -0.31047 -0.043931 0.60958 0.44884 -0.065352 -0.46924 -0.1744 -0.61722 0.25892
abuse 0.09591 -0.38653 0.056957 0.23673 0.1461 0.51586 -0.43973 0.42178 0.077976 0.11949 0.38055 -0.63993 0.042803 -0.12346 0.35451 0.083896 0.41125 0.40648 0.029197 0.13039 -0.0047291 -0.12951 -0.59678 0.087574 0.10839 0.39778 0.39542 -0.099953 0.066506 -0.86969 -0.34046 0.09589 0.29107 0.02043 0.202 0.18803 -0.15055 0.1093 -0.23496 0.35197 0.62448 -0.027708 0.35268 0.13961 -0.29139 0.34429 -0.17339 0.20519 0.32504 -0.73496 0.55307 -0.085302 -0.36048 0.11222 0.019166 0.079001 0.016056 -0.20608 0.32645 -0.83289 -0.37664 -0.038684 -0.17318 -0.069979 0.90824 0.19659 0.61498 -0.048478 0.31982 0.27034 0.017717 0.33181 0.3749 -0.50839 -0.65391 0.14705 0.36808 -0.041424 -0.088909 -0.25829 0.15159 -0.30813 -0.072364 0.36371 0.35537 0.31553 0.27162 0.26917 0.11354 -0.16059 0.14206 -0.18744 -0.0508 -0.30252 0.46395 0.35444 -0.57481 0.43459 0.038134 0.051019 -0.52667 0.15963 0.13134 -0.099115 -0.64775 0.54185 -0.12521 0.85755 0.31423 -0.12012 0.13837 0.65414 0.016084 0.099615 0.55948 -0.11136 0.15703 -0.1247 -0.16679 -0.27915 -0.0033536 0.37058 0.35509 0.10163 -0.045184 0.1498 0.35443 0.18752 -0.027068 -0.14484 0.19283 0.26777 -0.48617 0.34243 0.36364 0.29404 -0.29453 0.25592 0.096116 -0.54654 -0.49348 0.282 0.002515 0.25169 -0.098371 -0.33969 -0.22436 -0.1476 -0.60101 -0.10924
criterion 0.24322 0.0017505 0.041742 0.17598 0.014857 -0.47762 -0.38951 0.031668 0.26092 -0.0024581 0.10831 -0.039677 0.057778 0.20318 0.10494 0.14407 -0.07788 -0.27066 -0.037055 -0.2779 -0.10016 0.10658 -0.40991 0.20342 0.040961 0.084739 0.092099 0.23323 -0.23146 0.034784 0.11593 0.12745 -0.15638 0.10664 -0.2743 0.42883 -0.10592 0.12511 -0.14514 0.45866 0.45846 0.2757 0.39241 -0.30512 -0.10897 0.17082 0.19387 0.11086 0.25422 0.22315 0.30146 0.17083 -0.26267 0.43114 -0.1357 -0.070201 0.16796 -0.11804 -9.2369E-4 0.064338 -0.11695 -0.23536 0.25102 -0.35896 0.38475 -0.19871 -0.2833 -0.079506 0.04704 0.47707 0.012231 0.34053 -0.04281 -0.42217 0.19076 0.53851 0.1136 0.16591 -0.25288 0.3196 -0.19898 -0.24942 0.2098 -0.11051 0.27907 -0.21609 -0.25666 -0.024579 0.061431 -0.21576 -0.27496 0.3303 0.50135 -0.24292 0.47497 0.21517 -0.47488 0.1747 -0.036764 -0.10372 -0.10744 -0.056944 0.31618 -0.05317 -0.26582 0.24872 0.31248 0.28543 0.1716 -0.34437 0.17314 0.13189 0.20238 0.45218 -0.02076 -0.19659 0.22955 0.085325 0.17878 -0.091621 0.30379 -0.62309 -0.2284 -0.293 0.51803 0.016196 -0.045654 -0.12235 -0.31715 0.57466 -0.18729 -0.32784 -0.052494 0.03633 0.0040873 0.18159 0.51961 -0.14461 -0.3976 0.20899 -0.34257 -0.20107 -0.083471 0.070547 0.11186 0.11479 -0.58089 -0.039197 0.043101 -0.18253
sea 0.059376 -0.13852 -0.040133 -0.94096 -0.17888 0.14947 0.41801 0.50958 0.48025 0.30706 0.05026 -0.273 -0.0054712 0.31946 0.14451 -0.64757 0.0074544 0.30264 -0.30533 -0.033743 -0.21668 0.16661 -0.13196 0.15209 0.077153 0.014657 -0.20265 -0.01807 -0.41581 0.075954 -0.1469 0.49006 0.089712 0.57776 -0.53485 0.20369 0.17903 -0.2189 -0.58798 -0.33414 0.32968 -0.18931 0.26329 -0.44816 0.2764 0.37774 0.77413 0.3122 -0.067825 0.10764 0.14345 -0.3014 0.36447 -0.23964 -0.11575 -0.191 0.26452 0.094894 0.05387 -0.42792 0.027268 0.11094 -0.56797 0.53125 0.82195 -0.16408 0.34571 -0.11561 -0.022848 -0.24797 0.27816 0.065683 -0.1783 0.12965 0.17323 -0.044767 0.3041 -0.56187 -0.012299 0.53765 -0.039168 0.50492 0.64423 0.18613 0.2265 -0.33884 -0.11927 0.3659 -0.14393 -0.020084 -0.030194 0.27377 0.34395 0.37231 -0.19233 -0.10164 0.046403 -0.099255 -0.70792 0.22739 -0.23378 0.09841 -0.048851 0.20663 0.19156 -0.19393 -0.34144 0.17109 0.35762 0.38258 -0.19768 0.61076 -0.039221 0.35612 0.08022 0.16952 0.44831 0.057262 -0.54286 0.0077387 -0.058757 0.0123 0.37229 -0.15412 -0.033065 0.046688 -0.075565 -0.44384 -0.10083 1.0777 0.08026 0.23062 -0.013054 -0.25996 0.22394 0.24175 -0.52513 0.052017 -0.51703 -0.2141 -0.35351 -0.10433 0.31848 0.30735 -0.12922 -0.27346 -0.51523 -0.35055 -0.42842 0.14648
dollar 0.45793 -0.39573 0.11377 -0.3141 -0.65951 0.2375 0.049621 0.12858 0.19655 -0.049351 -0.21292 0.50421 -0.070705 0.025448 0.14797 -0.56362 0.49155 0.24402 -0.2329 -0.057138 0.090487 0.72953 0.20571 0.067326 0.2389 0.097012 -0.050371 -0.26064 -0.13687 0.082738 -0.25786 -0.20488 0.082441 0.13079 -0.36865 0.26137 0.34345 -0.51516 0.20418 0.38587 0.22164 -0.16286 0.26616 0.17923 0.16435 0.15135 -0.38056 -0.072806 0.043892 -0.33723 -0.24485 -0.48349 -0.025283 0.071624 0.3079 -0.13527 0.20755 0.50807 0.0071958 -0.18999 -0.059259 -0.73861 -0.154 -0.48134 -0.21501 -0.17416 -0.1071 0.26641 -0.29688 0.16634 0.48588 -0.020367 0.37919 0.026936 -0.23633 0.30099 0.060121 -0.29701 -0.034616 0.042104 0.24205 0.54217 0.19566 -0.0091666 -0.4055 -0.20988 0.38699 -0.18237 -0.21122 -0.61013 0.55045 0.25206 0.32043 -0.36379 0.03856 0.23357 -0.35241 0.15004 -0.20166 0.24519 -0.29308 -0.31182 -0.3973 -0.15527 0.10815 0.8295 -0.93239 1.0026 0.17777 0.017693 -0.34034 0.071107 -0.33263 0.41617 0.063894 0.043004 0.46113 0.78533 -0.077579 -0.57095 0.30825 -0.57448 0.11362 -0.67298 -0.17134 -0.38075 0.32379 -0.12449 -0.54014 0.3574 -0.15763 -0.42591 -0.18002 -0.1814 0.16697 0.11149 -0.48426 -0.30577 -0.46386 0.43482 0.10545 -0.035662 0.0044187 0.0927 0.056977 -0.63159 -0.46023 -0.029806 -0.15302 0.7362
example -0.28424 0.13516 -0.27688 -0.055318 0.18782 -0.092863 0.17747 0.44293 0.26596 -0.073243 0.026134 -0.201 -0.26053 -0.20009 0.25883 0.01421 0.19997 -0.14899 -0.16946 -0.049017 -0.25498 0.32017 -0.1255 0.13197 0.32114 0.025801 0.22268 -0.32191 -0.17636 -0.19178 -0.014626 -0.038742 -0.17856 -0.13706 -0.22565 -0.085216 -0.41466 0.095678 0.039636 -0.096848 -0.21904 0.13537 0.19817 0.15374 0.13647 -0.30487 -0.18933 0.092988 0.032312 -0.040053 0.30327 -0.48485 -0.24543 0.10957 -0.22235 0.039383 0.092595 -0.41698 0.033475 -0.027778 0.14333 -0.49629 -0.18433 -0.24752 -0.03467 0.38521 -0.0096862 -0.060485 0.38621 -0.21758 0.13535 0.34298 0.066509 -0.018302 0.24123 0.64302 -0.019158 0.029074 0.23851 0.53817 -0.1783 0.14463 0.11706 0.063954 0.28349 -0.14412 0.15149 -0.17581 0.2061 -0.011522 -0.064689 0.16958 0.27698 0.11045 0.24485 -0.18395 -0.051666 0.097863 -0.22002 0.10367 -0.31141 0.3462 -0.098286 -0.18406 -0.41223 0.054413 -0.30646 0.35325 0.34917 -0.09876 0.32059 0.12965 -0.1676 0.13369 0.10509 -0.11257 0.29538 0.20759 0.11756 -0.35346 0.29792 -0.1663 -0.20465 0.039882 0.16848 -0.058743 0.065859 0.095859 -0.091898 0.16769 -0.063871 -0.13596 -0.068092 0.06439 0.17001 -0.0029423 0.14835 -0.27549 -0.094977 -0.35187 0.025261 -0.50855 -0.24591 0.22546 0.23818 -0.18422 -0.30345 -0.01781 0.14223 -0.1587
journal 0.43981 -0.31813 -0.46782 0.080659 -0.25666 -0.41284 -0.66621 -0.098716 0.36767 -0.30177 -0.025134 -0.16689 -0.10503 -0.30661 0.29126 -0.15819 0.68815 -0.39992 0.15424 -0.14455 -0.39154 -0.42026 0.049625 -0.45136 0.10663 0.40442 -0.23095 -0.31004 -0.29641 -0.36465 0.24383 0.21284 0.26851 0.32925 -0.024894 0.58059 -0.15804 0.37738 0.016535 -0.013383 -0.34452 -0.093571 0.39904 -0.40417 -0.69269 -0.011821 0.25666 -0.016245 0.10051 -0.034037 0.12795 0.29904 0.11252 -0.73105 -0.16572 0.35215 0.39515 -2.3824E-4 0.76225 -0.073133 -0.48423 -0.28332 -0.09853 0.49554 0.58584 -0.37077 -0.08168 -0.33867 0.75934 0.10697 0.68959 -0.040565 0.079452 0.38547 0.48119 0.52427 -0.20225 -0.16743 0.38959 0.39534 -0.23932 -0.34727 0.21335 -0.12123 0.11158 0.24495 -0.48357 0.40103 0.37501 -0.26452 -0.094861 0.38806 -0.067192 -0.19117 0.42614 -0.029017 -0.75781 0.38945 -0.19563 -0.4286 -0.2244 -0.027063 -0.37491 -0.13768 0.40722 0.11396 -0.43216 0.25948 0.26823 -0.042798 -0.44573 -0.23556 -0.56654 0.45169 -0.1478 -0.015991 0.58937 0.19527 -0.52888 -0.37513 0.41373 -0.45519 0.16589 -0.59233 0.42032 0.92511 0.24372 0.60385 0.16219 0.66886 0.11329 -0.13952 -0.37365 -0.16016 -0.16939 -0.012442 0.32719 -0.36902 -0.30491 -0.31113 -0.39935 0.53493 -0.19646 0.088601 -0.035322 -0.45658 -1.307 -0.17942 -0.15104 -0.42568
laundering 0.10558 -0.30781 0.89801 0.31279 -0.55316 -0.12208 0.097875 0.45647 0.079078 -0.0013271 0.26455 -0.13827 0.25973 -0.38542 0.61039 0.094274 0.35815 0.041696 -0.14026 0.40539 -0.15864 -0.038609 -0.31936 -0.1625 -0.20296 0.4218 -0.040893 -0.016989 -0.58682 -0.4717 -0.704 0.078541 0.24388 0.18051 -0.26562 -0.24262 -0.39381 -0.10355 -0.65424 0.22821 0.36963 0.035986 0.030774 -0.24511 -0.38053 -0.12967 0.13647 0.062852 0.62142 -0.83574 0.38652 -0.051229 -0.27373 0.71495 -0.23142 -0.55053 0.168 -0.040422 0.14936 -0.2236 -0.27003 -0.64017 -0.1088 0.24086 0.43137 -0.08176 -0.36903 -0.30682 -0.21702 -0.15167 0.61894 -0.36217 0.12089 0.084845 -0.59488 0.27672 0.037161 -0.61926 -0.057522 -0.057382 0.16 0.19954 0.37626 -0.41802 0.35991 -0.06183 0.52961 -0.04404 0.27703 -0.25081 0.10288 0.041534 0.26866 -0.23402 0.24957 0.07235 -0.61726 0.15236 -0.025786 -0.030115 -0.096173 -0.18915 -0.36702 -0.20932 -0.077207 0.48078 -0.55242 0.43988 0.27179 0.29611 -0.012359 0.3565 0.14554 -0.39585 0.13805 -0.1896 0.031441 0.18516 -0.34362 -0.2428 0.10542 -0.1028 -0.039305 -0.22072 -0.12898 0.010153 0.35029 -0.11165 0.30913 -0.62995 0.010301 -0.1908 0.2567 -0.20235 0.021842 -0.016771 -0.10354 0.2807 -0.3049 -0.42094 0.17503 0.066925 -0.082709 0.223 0.33997 0.27205 -0.54106 0.12319 -0.52416 0.42416
hotel -0.07703 0.075538 0.23395 -0.0027879 -0.12007 -0.03746 -0.31032 0.33155 0.59154 -0.018639 -0.36639 0.22861 0.51688 0.32245 0.54019 -0.37288 0.036591 0.67103 0.0095268 0.018003 0.10577 0.12556 -0.46993 -0.18872 -0.51052 0.17507 -0.058412 0.007711 0.038452 0.1603 -0.088192 0.41337 -0.57979 0.2187 -0.58583 0.11276 -0.12175 -0.23745 -0.76696 0.115 -0.18864 0.025776 0.50372 -0.36828 -0.21067 -0.47766 0.056273 0.088236 0.057154 -0.083329 0.0049075 -0.11738 0.017185 -0.18746 -0.54069 0.34677 0.38999 -0.40292 -0.19617 -0.15094 0.129 -0.22612 0.052484 -0.1357 0.12854 0.19444 0.11531 -0.014831 0.047169 -0.0077403 0.72562 0.068522 -0.13505 -0.26987 0.15689 0.56463 0.047553 -0.60107 0.13619 0.29116 -0.15747 0.26907 -0.0057374 0.0024111 0.083308 0.16514 0.15645 0.20945 -0.094966 0.45299 0.011692 -0.19835 0.14582 -0.34632 0.078444 -0.5877 0.087849 0.17799 -0.11728 -0.085729 -0.18779 -0.20383 -0.75461 -0.25067 0.12431 0.012967 -0.13188 0.16268 0.28644 0.023772 0.34152 0.11027 0.1721 0.31215 0.38468 -0.45926 0.0071876 -0.23513 -0.032832 -0.34247 -0.11304 -0.15478 0.1078 -0.55234 -0.25272 0.31165 -0.54862 0.10941 0.056406 0.62656 -0.46564 -0.12742 0.33491 -0.46634 0.19624 -0.29635 -0.47778 0.51728 -0.083338 0.14433 0.055015 -0.29639 0.21024 -0.23124 -0.060685 -0.15697 0.13953 0.091827 -0.47025 0.39365
term -0.17969 0.17601 0.11847 0.18949 -0.038839 -0.49814 -0.11005 0.084193 0.15179 -0.65768 0.27483 -0.12901 -0.319 -0.13295 -0.061252 0.27372 -0.015171 -0.23594 0.067877 0.20999 -0.58906 0.014585 -0.078744 -0.49754 -0.11286 0.056309 0.31709 -0.20956 -0.19033 -0.10822 0.29087 0.12819 -0.3423 -0.034348 -0.50375 0.32396 0.39305 0.056923 -0.46931 0.21513 0.33005 0.012006 0.57523 0.21145 0.19794 0.14254 0.0080796 0.048657 0.10767 -0.10634 0.64428 -0.12167 -0.61865 -0.10069 0.41174 -0.57667 -0.45697 -0.20093 0.5627 -6.11E-4 -0.13586 -0.78967 -0.22815 0.20551 -0.23448 0.2125 0.0026219 -0.14266 0.15061 0.031685 0.23234 0.34101 -0.4345 -0.14792 -0.12255 0.25733 -0.14818 -0.15893 -0.17125 0.38891 -0.11484 -0.28322 0.078072 -0.41839 -0.26887 -0.28118 0.21526 -0.0020033 0.23981 -0.14136 0.11557 0.033965 -0.061094 -0.0041276 -0.48121 0.12367 -0.11119 0.35551 -0.070486 -0.22319 -0.40056 -0.80385 -0.109 0.51296 -0.024399 0.24432 -0.50304 0.28363 0.28504 -0.17566 0.088565 0.11285 0.47239 0.095264 0.20923 0.104 0.68056 0.32339 -0.08184 -0.38601 0.45679 -0.30133 -0.41977 0.051182 0.011425 -0.29677 0.13018 -0.070497 -0.43618 -0.33941 -0.53439 -0.33107 -0.054176 -0.38165 0.44406 -0.030208 0.076246 -0.22467 -0.12745 0.40359 -0.17858 -0.058228 0.01556 -0.62464 -0.29218 -0.55026 -0.60474 0.261 -0.28025 0.04478
listing 0.38361 -0.18169 0.28452 -0.12559 -0.18259 -0.19401 -0.27221 0.020043 -0.14934 0.22603 0.22057 0.16062 -0.12998 0.29723 0.27089 0.2112 0.39617 -0.033731 -0.26671 -0.34738 0.033052 0.38801 -0.35542 -0.020852 -0.43153 0.070285 -0.40475 -0.3358 0.089979 0.46548 -0.032517 -0.37722 -0.34608 -0.11948 -0.26983 0.33997 -0.10432 0.4692 -0.26388 0.11419 0.17467 -0.16656 0.21683 -0.10832 -0.41723 -0.10288 0.14595 0.066354 0.15762 0.095748 -0.08031 0.29505 -0.18334 0.5008 0.24632 -0.14884 0.1595 -0.023255 0.32385 0.24434 -0.46998 -0.57657 -0.21084 -0.19193 -0.017641 0.34624 -0.45849 0.039084 0.20705 -0.10233 0.47492 0.088865 0.13635 -0.29775 0.41102 0.70633 -0.1628 -0.28377 0.2321 0.1095 -0.28943 0.17982 -0.085461 0.090959 0.2524 -0.12499 0.019417 0.30158 0.12754 -0.25909 -0.065004 -0.13799 0.37397 0.26724 0.16633 -0.16245 -0.2658 0.0077092 -0.45805 0.16742 0.0017664 -0.4893 0.074071 -0.080756 -0.12873 0.15563 -0.33595 0.32677 0.22304 -0.2221 0.18378 0.026741 -0.049016 0.0623 -0.16051 -0.45672 0.63587 0.41075 -0.049696 0.31425 -0.24448 0.051281 -0.20703 -0.07422 -0.016532 0.12241 -0.35972 -0.17757 -0.38204 0.1422 -0.42048 -0.42572 -0.15082 0.51234 0.062236 0.44411 -0.19498 0.13253 -0.36132 -0.17796 -0.12764 -0.16224 0.081922 -0.13668 0.61267 0.010591 -0.42411 -0.13299 -0.31437 0.26754
chemistry -0.42558 0.25039 -0.15564 0.031374 0.24615 -0.059865 -0.43148 0.24299 -0.1377 -0.5602 0.18959 -0.29608 -0.041759 -0.41998 0.28313 0.012378 0.32018 0.13007 -0.39973 -0.21572 -0.050053 -0.36659 -0.427 0.18996 0.66438 0.41593 0.098904 -0.45156 -0.30275 0.051194 -0.28259 0.77528 -0.37433 -0.016089 -0.0043267 0.38188 0.19548 0.096471 0.20796 0.26367 0.057752 0.28912 -0.15483 -0.51561 -0.17514 -0.029466 0.34112 -0.46305 -0.095652 0.23573 0.37832 0.17677 -0.31438 0.16078 -0.28888 0.10292 -0.1096 -0.25915 -0.037298 -0.33832 -0.081714 -0.14242 -8.0108E-4 0.11148 0.34795 -0.75014 -0.081848 -0.21269 0.19861 -0.23837 0.34327 -0.050465 -0.29906 0.22042 0.4179 0.43896 0.11629 -0.18229 0.014748 0.10766 -0.2359 -0.11988 -0.038806 0.24275 0.38217 -0.076608 -0.33397 0.17414 0.099479 0.062931 -0.05483 0.34426 -0.36954 -0.3399 0.11677 -0.15907 -0.28214 0.23028 0.1824 -0.56084 -0.33861 0.070539 0.13184 0.038325 0.026808 0.45463 -0.14265 0.4333 0.022958 0.39154 0.042238 0.020618 0.29871 0.072635 -0.17725 0.52794 0.11371 0.074578 -0.70551 0.082901 0.72885 -0.41855 0.23746 -0.61268 -0.0034377 0.092816 -0.060876 -0.058874 -0.11039 0.61634 -0.10541 -0.087281 0.26052 -0.11768 -0.097669 0.18902 0.33931 -0.18203 -0.49705 -0.049219 -0.3858 -0.21598 -0.082681 0.033949 0.069102 -0.056199 -0.92806 -0.43544 -0.18538 -0.043916
seafood -0.21634 -0.47657 -0.43033 -0.56968 -0.33577 -0.0030742 0.54699 0.81885 0.40469 0.075491 0.27483 0.34856 0.24904 0.090064 0.5022 -0.63236 -0.19682 -0.0097698 -0.53046 -0.16479 -0.14035 0.31102 -0.21888 -0.29065 0.33443 0.16613 -0.15297 -0.10541 -0.055271 0.076087 -0.39055 0.37421 -0.10413 -0.073739 -0.061695 0.33459 -0.17899 -0.51944 -0.48631 -0.022478 0.069562 -0.43221 0.48332 -0.60998 0.13335 -0.11786 0.22978 -0.011271 0.26915 -0.057455 0.53204 0.025841 0.24776 0.19749 -0.11546 0.11303 0.66402 0.23833 -0.55969 0.12037 0.0027004 -0.063477 -0.27967 0.43156 0.47602 0.29972 -0.49971 0.063637 -0.073683 -0.44601 0.4076 0.38277 -0.41707 -0.11437 0.34923 0.39765 0.033351 -0.57941 0.18247 0.2491 0.24059 0.49689 0.41809 0.18047 0.57094 -0.12079 -0.13554 0.33012 -0.22315 -0.025744 -0.28482 -0.23368 0.28313 0.012445 -0.34859 -0.095166 0.1042 0.33797 -0.0027057 0.060319 0.43332 -0.015146 -0.10152 0.50552 0.27529 -0.23345 -0.19732 0.36721 0.28754 0.027378 -0.03051 -0.030037 0.16586 0.41791 -0.11094 -0.0063904 0.44608 0.066765 -0.22107 -0.28359 0.30987 -0.11637 0.30326 -0.36265 0.1525 0.38346 0.12999 -0.046726 -0.66352 0.83682 -0.27588 -0.37877 0.30759 0.13563 0.20504 0.14772 -0.24967 0.088106 -0.084698 -0.09958 -0.16937 -0.69585 -0.44083 0.39246 0.37029 -0.18759 -0.37552 -0.26473 -0.41099 -0.26735
CD 0.27572 -0.31225 0.16141 -0.32299 -0.38772 0.0093104 -0.64778 0.10147 0.21281 -0.19067 0.19361 0.50886 0.41753 -0.15923 -0.10876 0.18989 0.22605 -0.12361 -0.31294 -0.27888 -0.59046 0.5868 -0.45226 -0.050135 0.17194 0.32702 -0.054005 -0.1725 0.11683 -0.56611 0.17887 0.077417 -0.15699 0.0040952 -0.50735 0.061898 0.35167 -0.40646 0.060456 0.18293 0.48871 -0.19281 0.0054758 -0.26336 -0.064219 -0.19231 0.16961 0.24203 0.21714 0.35919 -0.34838 -0.21391 -0.19892 0.57729 0.63999 -0.041245 0.60705 -1.2249 0.068991 -0.17513 0.11623 -0.01466 -0.23344 -0.13229 0.060681 -0.10201 -0.36024 0.020176 0.34173 -0.029852 0.40338 -0.32633 -0.29042 -0.10973 -0.048923 0.37236 0.1271 -0.093654 -0.32393 0.075915 -0.086031 -0.091611 0.054283 0.67806 0.46579 0.53159 -0.22363 -0.018588 -0.88644 0.31055 0.092757 -0.15994 0.089272 0.32142 0.38611 -0.19874 -0.2593 0.45696 -0.097081 -0.21939 -0.11889 -0.053764 0.26891 -0.39486 0.37161 0.39667 -0.44697 0.26974 0.21701 0.043549 -0.13752 -0.20216 -0.80138 0.62603 0.62663 -0.38916 0.62742 0.14411 -0.30406 -0.031001 -0.012693 0.06166 -0.46646 -0.49282 -0.58762 -0.28247 0.058346 0.38878 0.3395 0.06028 -0.2637 -0.33216 -0.1411 -0.28409 -0.053416 -0.014818 -0.39293 0.39102 0.11794 0.066129 -0.02164 0.42757 -0.014556 -0.27058 -0.077917 0.067867 -0.19658 -0.64086 -0.095875 0.18458
mind 0.028818 -0.070643 -0.064918 -0.23275 0.057261 -0.16538 -0.52198 -0.25723 -0.023276 0.10218 0.19489 0.10361 0.24908 0.032768 0.53957 0.54709 0.14253 -0.11183 -0.21993 -0.075227 -0.090663 0.12477 -0.082581 -0.19528 0.27317 0.27578 0.4273 -0.51161 0.26085 -0.054487 -0.32013 0.096558 -0.4222 0.46751 -0.35673 0.31088 0.15306 0.25201 -0.44978 -0.46987 0.30952 0.052035 0.3213 -0.30642 0.3847 0.32312 0.23689 -0.32594 0.17432 0.042622 -0.1285 -0.49922 -0.39739 0.25051 -0.12846 0.038222 -0.05727 -0.092922 0.13488 -0.06517 0.13994 0.0072355 -0.12825 -0.38658 0.4425 -0.34272 -0.15263 -0.14633 0.20819 -0.01986 0.36252 0.38679 -0.19589 -0.066798 0.07655 0.31439 0.22132 0.20048 0.017502 0.14741 -0.3361 0.20182 0.20152 0.15701 0.29168 -0.039204 0.12687 -0.032013 0.074607 -0.17173 -0.25688 0.18361 0.051035 -0.004304 0.2788 -0.11878 -0.29678 0.3477 0.37788 -0.1371 -0.17718 0.10211 -0.058844 0.0046677 -0.037612 0.060947 -0.51633 0.12033 0.31373 -0.281 -0.040232 0.4184 -0.11911 0.39767 0.1863 -0.08165 0.23992 0.39599 0.1837 0.22947 0.14672 -0.26595 -0.29106 -0.47887 -0.0079501 0.0029178 -0.43326 0.014185 0.15403 0.23721 -0.033692 -0.15197 0.015168 -0.088641 -0.12095 0.055819 0.13779 0.03837 0.05327 -0.26287 -0.46073 -0.023292 0.48626 0.37428 -0.2125 0.038421 -0.13367 0.23157 -0.045799 -0.079317
sex -0.17447 0.067163 -0.013588 0.34214 0.074845 0.50175 -0.32162 0.42018 0.36999 -0.17208 0.17799 0.023203 -0.0040254 -0.50871 0.096175 -0.027444 0.32131 0.65187 -0.38521 -0.085813 0.0016572 -0.18374 0.0083207 0.23134 0.52586 0.3977 0.49743 -0.49308 0.085329 -0.3327 0.11339 0.43855 -0.044257 0.10389 -0.062517 0.52758 -0.68234 -0.018717 -0.63459 -0.051227 0.27096 -0.09332 -0.13508 -0.38923 -0.26474 -0.26433 -0.17695 0.0019553 0.093446 -0.49003 0.28978 -0.40719 -0.257 0.54723 0.30388 -0.12487 -0.11308 -0.095835 0.18171 -1.1412 -0.0027383 -0.33297 -0.30181 -0.086636 0.45066 0.2452 0.16642 -0.19978 -0.14625 0.0042027 0.35648 0.26379 0.11602 -0.35746 -0.37909 -0.063082 -0.13526 -0.15409 -0.024941 0.085502 0.19912 0.39178 -0.27867 0.21213 0.23853 -0.28981 -0.1071 0.11152 0.57925 0.14746 0.26531 -0.14991 -0.12732 -0.72642 0.088289 -0.19409 -0.83089 0.56108 0.15398 0.17379 -0.29279 -0.187 0.36266 0.11326 -0.016748 0.24591 -0.64037 0.63257 -0.01939 0.086146 0.082829 0.80796 -0.34172 0.99929 0.59485 0.13017 0.16684 0.13407 0.054435 0.28343 0.40246 -0.30793 0.21516 0.45024 0.023766 0.31348 -0.30955 0.3387 -0.099967 0.21989 0.10438 0.31659 0.11193 -0.052895 0.031564 0.232 -0.044937 0.33371 -0.34778 -0.18501 -0.17164 0.073233 0.0076712 0.037563 -0.22506 -0.38018 -0.034222 -0.23416 -0.32512 0.65187
food -0.28945 0.081339 -0.57947 -0.2042 -0.41485 -0.24554 0.20278 0.43923 0.40883 -0.016952 0.30276 0.21859 0.34618 0.050773 1.0001 -0.27598 0.3633 0.12247 -0.74923 -0.44704 -0.24219 0.31331 -0.18496 0.26842 0.26689 0.316 -0.21718 -0.30949 -0.020415 -0.024925 -0.59661 0.19916 -0.069461 0.34031 0.034197 -0.37834 0.01668 -0.59905 -0.18887 0.10912 0.44406 -0.4287 0.52545 -0.24508 0.02489 0.1436 0.36612 0.12555 0.45189 -0.02598 0.62989 -0.1439 0.08179 0.066755 -0.080018 0.51844 0.15632 0.13735 -0.48385 0.10146 0.072022 0.12398 -0.22389 0.14046 0.34238 -0.072996 -0.27335 -0.11222 0.073384 -0.13354 0.1618 0.0023063 -0.456 -0.0019143 0.091695 0.39288 0.078369 -0.71483 -0.19297 -9.3584E-4 0.21367 0.40929 0.25846 0.42269 0.24617 -0.37857 0.16506 0.4727 -0.34653 0.24282 -0.1755 -0.23977 0.29841 -0.053124 0.1686 0.40272 -0.18116 0.13256 0.031034 -0.13802 0.038872 0.045037 -0.43705 -0.066191 0.04358 0.30165 0.092167 0.13497 0.22171 0.064988 0.10356 0.064543 0.13279 0.22528 0.30709 -0.17569 0.11006 -0.22761 -0.30214 -0.47284 0.44325 -0.43462 -0.021577 -0.27365 -0.11535 0.46972 0.21883 0.022072 -0.77858 0.099865 0.10906 0.20102 0.073782 0.0074015 0.47108 -0.054206 -0.096465 -0.024841 -0.019046 -0.091467 -0.43287 -0.28881 0.054455 0.21504 0.0027349 -0.061913 -0.13679 -0.41231 -0.2206 -0.13014
precedent -0.17053 -0.075433 0.20398 -0.20955 0.51967 -0.12662 -0.30391 0.29827 0.23395 0.17319 0.38453 -0.37288 0.094622 -0.054595 -0.035318 0.23773 0.037577 -0.19826 -0.24182 -0.0080218 0.012515 0.25346 0.12401 0.033644 0.058933 -0.086259 0.26844 -0.13638 -0.16999 -0.11381 -9.7967E-4 -0.097795 -0.1344 -0.28345 -0.40049 -0.32592 0.080939 -0.065952 -0.09185 -0.18724 0.15093 0.080422 0.4264 -0.26921 0.29146 0.13748 0.24023 0.11337 -0.12167 -0.0020163 0.59344 -0.59122 -0.22043 0.30149 -0.12668 -0.48025 0.25811 -0.36267 0.6275 0.11178 -0.06453 -0.037799 -0.24466 -0.11414 0.43727 -0.024663 0.03709 -0.0030657 0.64889 0.29771 0.022825 0.32426 -0.29042 -0.5568 -0.22933 0.27967 0.15485 -0.34449 0.060277 -0.078744 -0.22772 -0.126 0.22111 -0.061284 0.0099865 0.29966 0.077227 -0.26815 0.61569 -0.13329 -0.25837 0.16289 0.57726 -0.21375 0.35896 0.14654 -0.14371 0.11776 0.35386 0.11816 -0.45209 -0.251 -0.15721 -0.1233 -0.55735 -0.032087 -0.37489 0.39483 0.1622 -0.21399 0.078909 0.1561 0.0066689 0.24133 -0.094086 -0.42881 0.16593 -0.15263 -0.056636 -0.59435 0.16986 -0.20882 -0.081269 -0.20922 0.52982 0.094016 0.49596 -0.17287 0.086336 0.19129 0.15638 -0.13396 -0.1203 0.1019 -0.28173 0.14845 0.253 -0.25924 0.0060493 -0.023692 0.043251 -0.44959 0.20309 0.042209 0.098624 -0.20054 -0.90177 0.039516 0.047561 0.098233
series -0.12058 0.2183 0.12698 0.34009 0.11333 -0.5762 -0.53688 -0.055152 0.26151 0.15462 0.30841 0.017619 -0.21553 0.17602 0.14288 0.16755 0.3501 -0.21316 -0.44464 -0.33015 -0.12481 0.38486 -0.48105 -0.028022 0.017065 0.12265 0.75994 0.16523 9.4454E-4 -0.31039 0.11722 0.02645 0.13078 -0.23675 -0.32065 -0.034342 0.5032 0.69081 -0.032429 -0.14189 0.14751 0.12342 0.17303 -0.12117 0.0066662 -0.097037 -0.49325 0.45656 0.024658 -0.24461 0.13153 0.10939 0.25691 0.24162 0.11511 -0.13022 0.38541 0.10716 -0.23275 -0.4453 -0.22938 -0.29474 0.17124 -0.034057 -0.22807 -0.045007 0.31611 0.27215 0.089867 -0.044959 0.25815 -0.00402 0.097193 0.38394 -0.49989 0.02528 0.017931 -0.27235 0.18246 0.34202 0.34021 -0.42938 -0.0020678 -0.15873 0.27874 0.21729 0.080434 0.18186 0.44617 0.043434 -0.36622 0.14875 0.066042 0.34384 0.08051 0.004375 -0.22802 0.19032 0.36766 0.08307 0.14861 -0.12807 -0.12566 -0.32425 -0.02973 0.049462 0.038277 0.23084 0.29582 -0.25805 0.016141 -0.37336 -0.33549 0.82063 0.39206 -0.17491 0.029153 0.026891 -0.078578 -0.37101 0.2749 -0.2382 -0.030879 -0.28645 -0.014746 0.02503 0.067043 0.043384 0.5643 0.11355 -0.63191 0.27955 0.54673 -0.18566 0.13302 0.43125 -0.047026 0.26491 -0.29246 -0.14169 -0.23959 0.032661 0.20244 0.18562 -0.18389 -0.40299 -0.54583 -0.049536 -0.054417 0.21253
kilometer -0.20007 0.47621 0.13774 -1.2155 -0.43377 0.2616 0.048338 0.24172 0.19625 -0.68981 -0.25654 -0.1903 -0.15159 0.086904 -0.13634 -0.15599 0.2375 0.21245 0.5706 0.5578 0.6847 0.12216 -0.60537 -0.11897 0.90179 0.069624 0.28972 -0.2058 0.099899 0.68412 -0.38169 0.022972 0.20646 0.61188 -0.71669 0.23749 -0.10393 -0.037535 -0.18716 0.30547 0.043839 0.3951 1.0364 -0.35213 -0.20187 -0.3221 -0.34955 -0.4389 -0.75182 -0.036941 -0.6798 -0.18513 -0.21881 -0.24426 0.30792 -0.039755 -0.065063 0.26196 -0.018758 -0.46753 -0.15995 -0.37621 -0.26296 0.22254 0.7241 -0.013273 0.070863 -0.19507 0.14126 -0.41566 0.3806 0.4033 0.090909 -0.21208 -0.65537 -0.49224 -0.095377 0.22072 -0.27532 0.44131 0.24741 -0.91918 0.095835 -0.017625 0.13374 0.009067 -0.58147 0.30534 0.053243 0.023749 0.3683 0.49492 0.63714 0.43664 0.14915 -0.38261 -0.50674 0.21401 -0.4926 -0.26949 0.64965 -0.5721 0.082789 -0.33461 0.085609 0.17039 -0.87642 0.13242 0.35418 0.31666 -0.19364 -0.6374 0.44723 -0.2973 0.67153 -0.67656 0.67315 -0.28568 -0.46477 -0.5738 0.68595 -0.025967 0.35745 -0.30214 0.10453 0.66061 0.11106 -0.61496 -0.10412 0.83117 -0.029352 -0.55604 0.066362 0.021652 0.37386 -0.96147 -0.28477 -0.086654 -0.31071 -0.24855 0.16671 -0.26282 0.75926 0.25097 0.053306 -0.44742 -0.056126 -0.21858 -0.17047 0.53715
grocery 0.0087603 -0.10644 -0.17039 -0.13517 -0.67968 -0.39696 -0.08288 0.12496 0.20422 -0.16835 0.33124 0.44597 0.54044 0.2288 0.57635 -0.18917 0.60974 0.23815 -0.50001 0.15017 -0.18626 0.12237 -0.39372 -0.10319 0.10695 0.028174 0.061146 -0.1248 4.5141E-4 -0.37815 -0.4873 -0.048964 0.17285 0.23113 -0.40711 0.14369 -0.39025 0.030959 -0.26684 0.30044 -0.0075164 -0.63969 0.53189 0.018514 0.069614 -0.12934 0.024989 0.061526 0.015854 0.27213 0.54304 0.10603 -0.30228 0.025703 -0.20942 -0.054738 0.39011 -0.0072781 -0.90563 0.19592 -0.54238 0.37333 -0.065279 0.03487 0.34527 0.84867 -0.46024 -0.12929 -0.036093 -0.16609 0.54276 0.18152 -0.07877 -0.078096 0.38673 0.88983 0.082137 -0.46425 0.080882 -0.070781 0.19141 0.35054 -0.012562 0.50217 0.59006 -0.074928 -0.20223 0.25978 -0.46175 0.50677 0.10549 -0.26349 0.16556 -0.44372 0.041886 0.52142 0.05616 0.52828 -0.5146 -0.019398 0.14353 0.043101 -0.78107 -0.061502 0.50894 0.18639 -0.46956 -0.015575 0.027443 -0.064064 0.34494 0.28265 -0.1657 0.26708 0.31963 -0.37041 0.16368 0.57671 -0.15763 -0.15659 0.76141 0.094315 -0.11527 -0.35713 -0.16994 0.46161 0.27112 0.16444 -1.0559 0.29206 -0.29188 -0.58721 0.26113 -0.20209 0.22037 0.14859 -0.51332 0.09543 0.26055 -0.1823 -0.045742 -0.53759 -0.087083 0.24556 -0.4301 -0.048606 0.032119 -0.18983 -0.31414 0.055772
wizard 0.13734 -0.17907 -0.14787 -0.1286 0.19119 -0.17218 -0.59132 0.29785 -0.06163 -0.42371 -0.023675 -0.20954 0.10546 0.073759 0.14068 0.17595 0.065128 0.35357 -0.23707 -0.3832 -0.2447 0.2368 -0.46701 -0.28011 0.27906 0.57474 0.34949 -0.19348 -0.12213 -0.89153 -0.14866 0.29509 0.17356 0.0045567 -0.31632 0.42818 0.23865 -0.062663 0.076944 -0.078009 0.43805 -0.029579 0.27176 -0.36899 0.20159 -0.44648 0.35005 0.19829 -0.23199 -0.15082 0.06165 -0.16072 -0.31328 0.031452 0.1552 0.19679 0.23036 -0.10371 -0.058202 -0.2268 -0.24509 7.0633E-4 -0.21185 0.073269 -0.10803 -0.41204 0.1574 0.0023349 -0.089693 0.086408 0.42314 0.23124 -0.030709 0.35621 0.047889 0.13961 0.13321 0.14034 0.68523 0.349 -0.099681 0.018483 0.23731 0.13839 0.14364 0.029592 -0.27254 -0.33307 -0.0014572 0.059053 -0.26068 -0.58011 0.24806 0.15229 0.27736 -0.16136 -0.2456 0.39923 0.20386 -0.41502 -0.075909 -0.22047 0.32067 0.18263 -0.40486 0.12577 -0.31263 0.30941 0.30599 -0.10361 0.039631 0.26515 -0.40764 0.201 0.10585 -0.32959 -0.045905 0.25872 0.5803 0.082356 0.066777 -0.090147 -0.0035648 0.27381 0.28613 -0.25559 0.057692 0.22344 0.4405 0.54437 0.029483 -0.21078 0.39767 -0.22816 0.022615 -0.012063 0.29956 0.1955 -0.40418 0.054029 -0.37897 0.1741 0.086288 -0.11082 0.49363 0.25026 -0.17877 -0.1609 -0.05401 -0.26797
information -0.055387 0.11183 -0.30968 -0.09828 0.05432 -0.28167 0.10423 0.19187 0.87712 -0.37347 -0.11379 -0.10103 -0.16313 -0.40494 0.12481 0.21334 0.36936 0.30334 -0.080514 -0.20291 0.15254 0.40884 -0.48385 0.049494 -0.38838 0.38979 -0.019432 0.16255 -0.13218 -0.18554 -0.40606 -0.058075 -0.49105 -0.23996 0.077204 0.27278 0.065657 -0.039138 -0.24996 -0.42921 0.78236 -0.40651 -0.11596 -0.45724 -0.29026 -0.075143 -0.20078 0.1146 0.18344 0.32225 0.33399 -0.065693 0.10081 0.020714 -0.034933 0.062255 0.20935 -0.31269 0.043933 0.05579 -0.073629 -0.40332 -0.021987 -0.22538 0.62325 0.42563 0.10521 -0.18768 0.2304 0.2179 0.58191 0.36672 0.69177 -0.25775 0.25445 0.40971 0.13539 -0.46559 -0.25238 -0.097649 0.091985 0.43425 -0.050307 -0.17886 0.73795 0.24474 -0.13263 0.30153 0.56115 -0.44502 -0.13773 0.19352 0.74493 0.30274 0.49746 0.53133 -0.49726 0.40833 0.077517 -0.20051 0.39883 -0.087145 0.15375 -0.45341 -0.0043119 0.036185 -0.37642 0.27364 0.3544 0.0054897 -0.083138 0.033545 -0.064143 -0.11343 0.29553 0.30554 0.70968 0.1196 0.26409 0.15931 0.16129 -0.24812 -0.10931 -0.44202 0.47073 0.36732 -0.12991 -0.26129 -0.11037 -0.30263 0.30696 -0.10592 -0.14433 -0.22251 -0.0016933 -0.22031 -0.01668 0.02763 -0.19898 -0.28803 0.36305 -0.41409 -0.42689 -0.04168 0.082457 0.43407 -0.12113 -0.05536 0.096425 -0.25262
Israel -0.28977 0.0069686 -0.2443 -0.37092 0.057411 0.17229 0.22806 0.58324 0.39548 -0.13861 0.069584 -0.62618 0.35272 0.45351 0.0094648 0.52936 0.18207 -0.32063 -0.544 0.17684 0.19335 -0.31599 0.0026808 0.49054 -0.51767 -0.01664 -0.44355 0.32705 -0.18626 -0.079961 0.11835 -0.62444 -0.10931 -0.028445 0.62962 0.53821 0.056402 0.32251 -0.34298 -0.097604 0.18018 -0.28098 0.0084479 -0.20959 -0.3688 0.29877 0.22513 0.41351 0.21918 0.069653 0.82347 -0.54359 -0.27684 0.2031 0.16163 -0.1486 -0.024264 0.24066 0.066952 -0.27839 0.10616 -0.2974 0.069652 -0.13551 0.57303 -0.20648 0.14376 -0.21731 0.16644 0.11828 -0.41022 0.032276 0.017119 -0.49444 -0.45548 0.052681 0.18693 -0.083203 -0.0982 0.76955 0.086865 0.0074318 0.080198 -0.06836 -0.0010659 -0.13621 -0.19204 -0.36476 -0.21806 0.22142 0.27378 -0.12535 -0.090565 0.14787 -0.17547 0.21215 -0.35773 -0.27423 0.29099 0.42859 0.14095 0.11716 0.011579 -0.35794 -0.47286 0.9076 -0.3849 0.27485 0.24336 0.31523 0.14602 0.32062 -0.83969 0.69907 0.2963 -0.015552 0.2784 0.33879 -0.20929 0.049499 0.89576 -0.63296 -0.36265 -0.48007 -0.34641 0.36814 -0.43815 0.0025421 0.37799 0.21776 -0.36756 -0.66775 -0.32597 -0.20722 0.15747 0.16398 -0.70157 0.47421 0.066253 0.012617 -0.27884 -0.493 0.53381 -0.11565 -0.33316 -0.20133 -0.7192 0.33252 -0.31654 0.21551
brandy -0.23313 0.022549 0.29296 -0.37325 -0.15781 0.11025 -0.30741 0.47859 0.047328 -0.11195 0.16299 0.067448 0.13689 0.24112 0.52462 0.098134 -0.10133 -0.29441 -0.37863 -0.23716 -0.27327 0.36958 -0.15672 -0.26456 0.13312 0.28325 -0.070735 0.054129 0.16718 -0.46134 -0.33104 -0.020261 -0.13846 0.13534 -0.18657 0.11651 -0.25317 -0.33794 -0.40947 -0.009629 0.1823 -0.48462 0.22701 -0.30927 0.12735 -0.40993 0.11548 -0.059178 0.15924 0.11727 0.54246 -0.10569 -0.16895 0.054183 0.014651 -0.16129 0.36087 -0.16179 -0.49562 0.026016 0.098416 -0.024402 0.23363 -0.18067 0.051213 0.13888 -0.36378 -0.051742 0.094883 -0.30835 0.17901 0.39896 -0.31641 0.075248 -0.18532 0.42489 0.049633 -0.25348 0.28639 -0.26561 0.17016 0.12086 0.36162 0.33099 0.10505 0.27966 -0.094866 0.06812 -0.1908 0.27538 0.074982 0.21225 -0.0037571 -0.0012279 0.0889 -0.54321 0.11738 0.5092 0.01904 -0.29509 -0.094249 0.32196 0.11727 0.04212 0.11737 -0.3037 -0.37891 -0.15235 0.10085 0.02571 0.20819 0.067442 -0.14414 0.17065 0.32839 -0.41756 0.32974 0.11795 -0.16804 -0.0091536 0.22618 -0.26899 0.2093 0.070763 -0.027623 0.33885 0.082273 -0.1375 0.067217 0.28797 -0.45599 -0.4169 -0.10352 0.072837 0.1793 0.27672 0.25207 -0.22644 -0.13805 -0.065267 -0.088534 -0.32933 -0.050461 0.45571 0.083896 0.18387 0.021288 -0.094487 -0.23825 -0.11154
interview -0.23833 -0.45798 -0.29354 0.0039318 0.19622 0.066196 -0.50779 -0.12388 0.56292 -0.020249 0.18681 -0.17865 0.16583 0.19942 -0.1772 0.16161 0.32017 -0.33044 0.18821 -0.43762 -0.065326 0.47656 0.013455 -0.31894 -0.082243 0.13266 0.43309 -0.065003 -0.21537 -0.012475 0.5397 -0.51305 -0.19873 0.10391 -0.14975 0.22174 -0.26627 0.51761 -0.66438 0.21755 -0.085044 0.21428 0.5718 -0.014658 -0.14358 -0.0018566 -0.33938 -0.14978 0.19265 0.18986 0.30178 -0.19373 -0.054648 -0.10321 0.15434 -0.12202 0.15099 -0.5247 0.073837 -0.023303 -0.15812 -0.66256 0.1776 0.019526 -0.13687 0.1841 -0.19931 0.073711 0.4051 0.47847 0.68712 0.42217 0.20639 -0.034244 -0.047549 -0.16974 0.096416 -0.42147 0.54292 -0.024516 -0.23311 -0.38775 0.2813 0.029871 0.67415 0.26026 -0.065432 0.24212 0.010113 0.1167 -0.065745 -0.15433 0.13341 0.14202 0.51634 -0.5179 -0.3152 0.22979 0.34708 8.3168E-4 0.067613 -0.40611 -0.26855 -0.36275 -0.25403 -0.42806 -0.77808 0.041155 0.03378 0.031158 0.0074649 0.095217 -0.37919 -0.012459 0.079884 -0.095474 -0.10231 -0.066589 -0.51118 0.42927 0.3324 -0.1237 -0.023838 -0.13828 -0.073736 0.63039 -0.26669 0.32458 -0.25474 -0.23216 0.35356 -0.022402 -0.010158 0.090023 0.012962 -0.14223 -0.15636 0.28581 -0.26504 -0.015841 -0.51106 0.096379 0.18732 -0.16929 0.093747 -0.46171 -0.54204 0.27698 0.53013 -0.11643
prominence 0.061512 -0.13513 -0.37853 0.31656 0.082817 -0.31703 -0.14619 0.051856 -0.079024 0.30341 -0.0076018 -0.14477 0.23687 0.26087 0.23518 0.36815 0.094722 0.08998 0.17858 -0.5012 0.073075 0.23835 -0.35811 -0.0955 -0.022472 -0.2346 0.36175 -0.17961 0.11646 0.07712 -0.227 -0.060237 0.10314 -0.0055854 0.21292 0.20647 -0.0021198 -0.049448 -0.086271 -0.10912 0.15995 0.062233 -0.22804 -0.062587 -0.078534 -0.1524 -0.43484 0.094922 0.022414 -0.39718 0.18854 -0.29024 -0.2662 -0.33942 0.29838 0.14844 -0.054212 -0.3696 -0.18143 -0.049881 -0.24009 -0.78856 -0.17555 -0.040197 -0.073238 0.05334 -0.14046 -0.094824 -0.12016 -0.17838 0.19003 0.44726 -0.15064 0.062759 0.24373 0.2462 -0.013527 -0.3047 0.19655 -0.093024 0.052161 0.09846 -0.085412 0.41946 -0.057967 0.0077649 0.089593 -0.22532 -0.00858 0.04697 0.22851 -0.084994 0.06575 0.0074534 0.2406 0.0073308 -0.1766 0.19569 0.093021 -0.24641 -0.43359 -0.52971 0.1783 -0.19637 -0.16283 -0.15069 -0.46766 0.23614 0.20957 -0.36292 0.046596 0.16977 -0.021837 0.40397 0.032949 -0.0067856 0.31441 0.19183 -0.21091 -0.68221 0.24795 -0.077904 0.20402 0.20223 0.24931 0.051365 0.066052 -0.21768 0.030536 0.264 -0.039882 -0.23481 -0.30517 -0.18599 -0.28808 0.19189 -0.14945 -0.42297 -0.70348 0.020626 -0.29642 -0.16257 0.21216 0.087166 0.10059 -0.11662 -0.59748 -0.16794 -0.024022 -0.016812
bed -0.069346 -0.28135 0.01281 -0.48175 0.067611 -0.075626 -0.39416 0.21587 0.27891 0.16016 -0.35778 0.33719 0.22618 0.16566 0.52208 0.019297 0.23381 0.04409 0.5764 -0.20273 -0.40579 -0.0098391 0.04921 -0.089031 -0.063115 0.35259 0.020203 -0.36466 -0.16122 0.10001 -0.028138 0.50913 0.041057 0.59322 -0.51143 -0.030344 -0.38625 -0.12869 -0.68882 -0.10499 0.54776 -0.41797 0.78251 0.18268 0.060057 0.30827 0.33028 0.15669 0.15711 -0.14065 0.13459 -0.7708 -0.087581 -0.71481 -0.25838 0.34126 0.11342 -0.19383 -0.35708 -0.43208 -0.02674 -0.29048 0.092333 0.021283 0.30778 -0.13691 0.1662 0.12287 0.4091 -0.032077 0.74659 0.37612 0.45845 0.17833 0.059928 -0.0024932 0.23272 -0.13238 -0.020207 -0.034654 0.23324 0.36128 0.2131 0.20442 0.17638 0.31925 -0.37054 0.25985 -0.079566 0.35267 0.002508 0.04794 0.4314 0.094096 0.19616 -0.226 -0.5072 0.26128 -0.14842 0.13143 -0.60538 0.18448 -0.051082 0.23173 0.052578 0.25913 -0.26441 -0.26375 0.16917 0.057555 0.1843 0.34744 -0.29654 0.47116 0.55918 -0.11632 -0.37255 -0.13233 -0.10512 0.049784 -0.25164 0.026712 -0.23047 -0.22156 -0.39908 0.25778 -0.22935 -0.052823 -0.19109 0.26705 -0.25218 0.24178 0.14092 -0.063986 0.2963 0.49686 0.061854 0.40863 -0.36907 0.12338 -0.1401 0.15465 0.18574 0.033894 -0.67205 -0.092745 -0.10223 -0.30282 -0.52909 0.35574
furnace 0.0022259 0.094686 -0.014517 -0.18776 -0.024264 -0.20306 0.22267 0.54235 0.27547 -0.28663 -0.26454 0.20445 0.26669 0.18393 0.86705 -0.044386 0.13861 0.13789 -0.5216 -0.28672 0.033523 -0.048349 -0.43314 0.02786 0.2464 -0.078448 -0.0054369 -0.37013 -0.3751 -0.071076 -0.25654 0.61543 0.29028 0.15432 -0.30596 0.17258 0.2917 -0.33408 -0.39598 -0.023498 0.54834 -0.1186 0.061812 -0.12052 -0.042523 -0.20623 0.15895 -0.084792 0.24168 -0.35932 0.090802 -0.0092587 -0.27497 -0.12389 -0.32277 -0.19575 0.21073 0.32823 -0.21205 -0.0094367 -0.004525 -0.31742 0.0277 0.27023 0.69066 0.23423 0.017039 -0.33436 0.32073 -0.20038 0.28765 -0.18617 0.2583 0.57321 0.067509 0.39593 0.18458 -0.1739 -0.48045 -0.1601 0.0028245 -0.16932 0.91774 -0.027088 0.35917 0.20724 0.069908 -0.17452 -0.38165 0.23434 0.038072 0.27274 0.42702 0.25941 -0.19655 -0.34582 -0.24655 -0.124 -0.35139 -0.17535 0.017711 0.11665 -0.19613 -0.02583 0.33325 0.079694 -0.1774 0.27006 -0.2128 0.17713 0.13768 -0.035758 -0.43412 0.11038 0.59938 -0.082887 0.048773 -0.15996 -0.0088922 -0.37105 0.22247 -0.091952 0.09829 -0.33281 -0.57509 -0.17078 -0.039983 -0.26248 -0.13789 0.19151 -0.059136 0.18855 -0.08296 0.04084 -0.045883 0.23096 -0.15705 0.074318 0.092777 -0.057391 -0.54582 -0.44636 0.28248 0.1252 -0.29317 -0.23018 -0.31285 -0.017865 -0.33533 0.31599
evidence -0.10903 -0.43964 0.19748 -0.11897 0.27214 -0.20596 -0.40025 0.50492 0.3086 -0.63847 0.20865 -0.2762 0.02819 -0.34599 0.58064 -0.16493 0.33553 0.32583 0.055108 0.44792 -0.32093 0.3339 -0.29059 0.25823 0.056618 0.2521 0.034072 -0.23027 -0.021284 0.19715 -0.2762 0.071349 -0.30384 0.0039855 -0.046923 0.44711 -0.10377 0.3053 -0.099271 -0.35408 -0.031807 -0.22412 0.12443 -0.34903 0.17635 0.029468 0.18407 0.1742 -0.1721 -0.41451 0.72464 0.10021 0.050471 -0.062829 0.24194 -0.059516 0.21404 -0.35771 -0.11659 -0.40816 -0.14196 -0.49328 0.30283 -0.2263 0.38416 -0.21052 -0.23379 -0.009466 0.61525 0.49717 0.33008 0.46095 0.10323 -0.023142 -0.23384 -0.029245 0.28819 -0.5 -0.15717 -0.16281 -0.244 0.045741 -0.022567 -0.26975 0.093695 -0.26512 -0.11456 0.10004 -0.051327 -0.37476 -0.55756 0.11832 0.69438 -0.03432 0.40147 0.10596 -0.6574 0.054986 0.30705 0.0045392 -0.24251 -0.34055 -0.32907 -0.40591 -0.15704 0.34812 -0.20015 0.18217 0.23814 0.016214 -0.15031 0.5825 0.081329 0.29314 0.34982 0.24891 0.17186 0.022429 -0.34637 0.013397 0.054796 0.15235 0.085988 -0.65552 0.51069 0.066103 0.34483 0.13763 -0.058835 0.37392 0.40268 0.20386 -0.045474 0.21055 -0.27851 0.054462 0.094259 -0.23905 -0.13379 -0.3237 0.13982 -0.18314 -0.35333 -0.12899 -0.28828 0.0611 -0.48292 0.0096654 0.46197 -0.25359
sprint 0.25118 0.00519 0.042268 -0.48377 0.49983 -0.036012 -0.43803 -0.11359 -0.11782 -0.24365 0.63425 -0.55271 0.11806 0.077954 0.29241 -0.2695 0.35941 0.30682 -0.42684 0.027281 0.052471 0.61419 -0.030008 0.12744 0.80882 -0.32754 -0.034427 0.07381 -0.14737 0.38103 0.14607 0.4784 0.091849 0.12029 -0.35346 0.14219 0.35308 0.31288 0.037651 0.21087 0.1555 0.31118 0.56426 -0.0018389 0.18333 -0.1787 0.52362 -0.55504 -0.26255 -0.16597 -0.10122 0.23679 0.078736 -0.24019 0.53715 0.16528 -0.4126 0.051936 -0.23529 0.10481 -0.0097118 -0.41908 0.36752 -0.25262 0.31391 -0.085066 -0.0521 -0.49882 0.19185 -0.66519 0.72773 0.19232 -0.37934 -0.33866 -0.24213 0.1896 -0.026478 -0.56112 0.28188 -0.066344 -0.30911 -0.53556 0.33779 -0.18653 -0.4144 -0.1151 0.41708 0.55283 0.42672 0.031039 -0.089426 -0.064849 -0.097019 0.1786 0.52706 -0.58959 -0.27148 -0.25269 0.48906 0.0060036 -0.28397 -0.20273 0.022496 0.091799 0.069871 -0.1167 -0.53706 -0.40712 0.35053 -0.086041 0.15059 -0.10878 0.061787 0.21017 0.10806 -0.73066 0.36109 0.60823 -0.0075609 0.12635 0.36339 -0.26145 0.26569 -0.49924 -0.089333 -0.36887 0.12345 -0.44884 0.22968 0.029718 -0.035712 -0.946 0.0866 -0.1696 -0.037667 -0.0030393 -0.16785 -0.45261 -0.36266 0.21962 0.13402 -0.29189 0.45864 0.026345 0.4004 -0.45419 -0.63146 -0.21597 -0.20033 0.23331
emergency -0.23058 -0.029288 -0.13341 0.056593 0.08224 -0.021837 -0.0076197 -0.069797 0.59771 -0.31706 -0.26594 0.30606 -0.22302 0.35091 0.48206 0.093872 0.13395 0.029321 -0.034397 -0.17629 -0.4737 0.014263 -0.41965 0.14275 -0.078831 0.1041 0.0036467 0.22165 6.4611E-4 -0.51861 -0.034249 0.13733 -0.28933 -0.49401 -0.26966 -0.18949 -0.25301 -0.098987 -0.4669 0.3069 0.26604 -0.063056 0.57753 -0.37297 -0.058859 0.091324 0.10096 -0.017981 -0.021805 0.62609 -0.016597 -0.52135 0.22869 0.11059 -0.15404 0.28426 -0.085742 0.029988 0.072571 -0.19202 0.29024 -0.36798 -0.30211 -0.25717 0.40262 0.13998 -0.0095249 0.1164 0.31406 0.55777 0.46602 -0.40252 0.56735 -0.13157 -0.63017 -0.084372 0.10032 0.041677 0.21112 0.52052 -0.057429 0.076783 0.4997 0.5663 -0.23256 0.42455 0.069307 0.11029 0.21248 0.42606 -0.069911 0.24958 1.0378 -0.29706 0.24529 0.28716 -0.23382 -0.22166 -0.174 0.39978 -0.21543 -0.08221 -0.13531 -0.21684 -0.55603 0.14657 0.25236 0.015244 0.59683 -0.028502 0.5501 0.28003 0.44691 -0.32499 0.15981 -0.09996 0.12409 -0.18998 -0.69696 -0.35744 0.13558 -0.2564 -0.16535 -0.31758 -0.2362 0.5114 -0.097664 -0.14715 -0.56871 -0.6801 -0.23295 0.20962 0.30168 -0.42363 -0.13684 -0.33022 -0.079222 -0.087512 -0.092908 0.15759 -0.45356 -0.060016 -0.14407 -0.11668 0.30181 0.28377 -0.3717 0.34174 -0.17048 0.76558
Jackson -0.24393 -0.087974 -0.08748 -0.23213 -0.10031 -0.1123 -0.83968 0.14321 -0.27102 -0.098571 0.261 0.6719 -0.13182 -0.27172 0.1349 -8.5584E-4 -0.04118 -0.29954 -0.36703 -0.17668 0.23815 0.098537 -0.39049 0.14022 -0.04227 0.10565 -0.036356 0.13675 0.14396 0.13966 0.40316 0.32479 -0.02532 -0.26452 0.0080523 0.43579 -0.22779 0.026444 -0.016175 0.27512 0.38446 -0.10811 -0.37867 -0.71763 -0.41253 0.079388 -0.272 -0.10656 -0.33661 0.10627 0.25999 -0.15727 -0.194 0.19205 0.73489 0.62971 0.052535 -0.016503 0.2284 0.021779 -0.11489 -0.34621 0.24943 -0.036494 0.038858 -0.10933 -0.13146 0.2266 0.34729 0.09203 0.13954 0.13755 0.29282 -0.20141 -0.48085 0.05445 0.85817 -0.41161 0.48756 -0.033763 -0.169 -0.17115 0.0022063 0.69148 0.16416 -0.0924 0.25151 -0.34694 -0.12154 0.31269 -0.023442 0.12374 0.3176 -0.34406 0.31048 -0.13391 -0.48742 0.079992 -0.033595 -0.19133 -0.89545 0.34326 -3.5116E-5 -0.17679 -0.53935 0.53438 -0.67281 -0.28593 0.80616 -0.065725 0.2706 0.059974 -0.3097 0.25696 -0.35398 -0.13241 -0.024648 0.0096747 0.21714 -0.45335 0.12718 0.24469 0.015824 -0.15442 -0.011877 0.38568 0.50193 0.15406 0.3825 0.44757 -0.32394 -0.16056 -0.0033753 -0.41909 -0.077043 0.11569 -0.70253 0.59746 0.034483 0.38389 0.26785 0.17783 0.2795 -0.39295 0.56959 0.38458 -0.32474 -0.06981 0.32529 0.065876
institution 0.051645 0.10199 0.20437 -0.13658 0.05229 0.045234 -0.31824 0.078319 0.45721 0.16139 -0.16023 -0.34813 -0.08833 -0.061704 0.17983 0.099435 0.076851 0.094225 -0.058111 -0.38449 -0.023548 0.095168 -0.101 -0.053934 -0.063973 0.029307 0.64051 -0.2985 -0.12667 -0.49773 0.044365 -0.40731 -0.081511 0.18912 -0.057522 -0.1114 0.037764 0.10162 0.066754 0.27791 -0.11046 -0.13357 0.2692 -0.17445 -0.32604 0.46322 0.40571 0.18328 -0.063777 -0.41759 0.12869 -0.44181 -0.43225 0.10552 -0.15112 -0.16241 0.15144 -0.29518 0.27213 0.11608 -0.082292 -0.2401 0.13625 -0.038139 0.033211 -0.29883 -0.066983 -0.086791 0.11096 0.29154 0.14442 0.17042 0.012967 0.038702 0.1492 0.15867 -0.078614 -0.055258 0.064891 0.1371 -0.25652 0.056476 0.095639 0.070444 0.036973 0.13397 -0.15016 -0.26819 0.58278 0.057226 -0.13302 -0.064746 0.61434 -0.78814 -0.017353 -0.02692 -0.58445 0.27009 -0.14247 -0.25602 -0.30924 0.0078705 -0.24781 -0.036082 -0.0931 0.34051 0.037321 0.47819 -0.0066856 -0.051874 0.27935 0.41905 -0.014654 0.17939 0.07015 -0.027213 0.44924 -0.010667 0.29598 -0.44554 0.58498 -0.43467 -0.14064 -0.12003 -0.085373 -0.1144 -0.13808 0.037013 -0.091358 0.084065 -0.099715 0.086762 -0.36646 -0.1978 -0.22176 -0.35788 -0.059925 0.069198 -0.063189 -0.12798 -0.51832 0.0054202 -0.24447 0.051738 0.56001 -0.16137 -0.023701 -0.072728 -0.64638 -0.17342
bird -0.3366 0.20144 0.074755 -0.46083 -0.50154 0.25257 -0.15255 0.32676 0.51437 -0.19042 0.0043649 -0.066152 0.034905 0.15323 -0.17486 -0.55568 0.061541 -0.23682 -0.46266 0.21389 -0.59719 0.40099 -0.1325 -0.54754 -0.11457 0.42069 -0.26121 -0.11153 -1.4792E-4 0.031826 -0.33105 0.31666 0.26751 -0.65317 0.037453 0.41152 0.15765 0.09918 -0.43664 -0.069424 -0.24208 -0.27855 -0.024884 -1.0588 0.22161 -0.56511 0.43249 -0.10832 0.37623 -0.2842 0.31168 -0.26134 0.11511 -0.23835 -0.051847 0.19338 -0.023067 -0.19891 -0.60931 -0.46839 -0.3497 0.064289 -0.0022148 0.22973 0.35908 0.16581 0.19729 0.30432 0.33875 -0.047881 0.73072 0.11478 0.55251 0.0018261 -0.19257 0.16973 0.32303 0.072169 0.018048 0.6334 -0.060204 0.36779 1.0038 0.37539 -0.21146 -0.31692 0.062591 0.080733 0.17747 0.26708 -0.056251 -0.19431 0.36055 0.74285 -0.055308 -0.59594 -0.21104 0.20146 -0.28855 0.18935 -0.081593 -0.13628 0.70434 0.46492 0.16767 -0.0030888 0.032559 -0.096191 0.0657 -0.3828 0.29004 0.48208 -0.19715 0.54604 -0.34926 0.073415 0.60387 0.35355 -0.12445 0.38593 0.51364 0.0012282 0.097613 -0.45483 0.33942 -0.31702 -0.12916 -0.61498 -0.3206 0.354 -0.0025175 0.027668 0.029941 0.055047 -0.099774 -0.054356 -0.11637 -0.29707 -0.16365 0.07523 -0.69438 0.3376 -0.074981 0.71676 -0.028005 -0.24885 -0.65365 -0.32614 -0.13282 -0.33766
Brazil 0.0075333 -0.32893 -0.45931 0.027992 0.053777 0.39557 0.5457 0.25819 0.10424 0.089251 -0.18566 -0.19395 -0.18858 -0.36326 -0.024464 0.56332 0.037856 0.25034 -0.36372 -0.21014 -0.39776 1.1643 0.51608 0.017258 0.1406 -0.0017139 -0.035449 0.48243 -0.07332 0.047148 0.53744 0.095757 -0.17306 -0.26793 0.26314 0.22358 -0.058315 0.13825 -0.11911 0.21828 -0.029081 0.13164 0.53034 0.47794 0.1133 -0.056958 -0.18494 0.067968 -0.25672 -0.19917 0.61004 -0.23789 0.056531 0.20742 -0.30141 0.029626 -0.80203 -0.28234 -0.35775 -0.0023657 -0.11416 -0.60769 -0.3446 0.088441 0.25366 -0.10846 -0.20407 0.11513 -0.024667 -0.2772 -0.10532 0.0061204 0.67266 -0.075805 -0.32315 -0.15301 0.33189 -0.35829 0.029506 0.056878 -0.073657 0.077826 0.04076 0.27963 -0.33994 0.10775 0.48808 0.28054 0.22022 0.14172 0.34043 -0.26227 0.28883 0.56285 0.39036 -0.60191 -0.6964 0.073059 -0.52448 0.22041 0.031134 -0.066626 -0.26874 0.2776 -0.16559 0.090645 -0.45592 1.5961E-4 0.56472 -0.27246 0.18978 -0.10378 -0.059076 0.19792 0.27414 -0.33012 0.050148 -0.50719 -0.22198 -0.53016 0.37794 -0.30039 0.36122 -0.57857 -0.16919 -0.073965 0.22678 -0.0062682 -0.26652 0.48676 0.29359 -0.46116 0.2784 -0.34485 -0.23549 0.45428 -0.25687 0.091921 -0.50238 -0.11026 0.085409 -0.17733 0.15209 0.036531 0.33092 -0.051496 -0.40087 0.05389 -0.36281 0.30828
warning -0.1462 0.21337 -0.25422 -0.26273 -0.001671 0.21946 0.34309 0.44958 -0.038914 -0.32134 -0.041007 0.34061 -0.39071 0.32457 0.41275 -0.10037 0.28439 -0.072544 -0.59589 0.33164 -0.09593 0.29698 -0.65919 -0.071033 -0.0053309 0.074876 -0.16928 0.27015 -0.06643 -0.52335 -0.31068 -0.54942 0.27644 -0.24456 0.18974 0.051714 -0.13249 0.16457 -0.23806 -0.67768 0.17353 -0.082465 0.41 -0.27249 0.17293 0.17578 -0.20758 -0.177 0.15944 0.078844 0.4398 -0.2377 0.025255 0.12029 -0.28003 -0.0071233 0.34022 -0.40396 0.22445 -0.069436 0.069559 -0.57254 -0.48077 -0.24521 0.47419 0.10015 -0.036001 0.24384 0.54204 0.35768 0.47105 0.4397 -0.17707 0.035362 0.16039 -0.043227 0.22187 0.020231 0.24796 0.19424 -0.38304 -0.11405 0.28031 0.34584 0.11837 0.36844 0.18867 -0.051274 0.13899 -0.45093 -0.28983 0.47836 0.38876 -0.19805 -0.16834 0.20053 0.023427 -0.034353 -0.17138 -0.19001 0.19385 -0.54143 -0.22104 -0.048722 -0.61015 -0.21766 -0.6099 -0.15632 0.5028 -0.019411 -0.23637 -0.10581 0.073322 0.31165 -0.15284 -0.005545 0.098359 0.39355 -0.21967 -0.16559 -0.26742 0.12871 -0.30007 0.0080142 0.021781 -0.30936 -0.049852 -0.17698 -0.26077 -0.26331 -0.43061 -0.25629 -0.28154 0.21417 0.14788 0.091544 0.11843 0.22624 -0.3306 -0.21961 -0.72906 -0.13518 -0.022487 -0.0021073 0.29684 -0.13866 -0.48589 0.024669 0.027395 0.19895
implement -0.13325 0.16193 0.0029342 0.20533 -0.079908 -0.056147 -0.12025 -0.063447 0.47825 0.074378 -0.13536 -0.0078314 0.08637 -0.086718 0.44751 0.71781 0.064366 -0.088589 -0.29298 0.015487 -0.46754 0.21257 -0.27522 0.23678 0.4774 0.27483 -0.25729 0.048263 -0.52187 0.0033598 -0.062455 -0.35804 -0.0353 0.040262 -0.72966 -0.082613 0.004989 0.13217 -0.33008 0.061763 0.29661 0.21823 0.63636 -0.34584 -0.18872 0.52853 0.24253 0.25652 0.079519 0.083569 0.22219 0.18944 -0.059624 0.23796 -0.4181 -0.67433 -0.2083 -0.13642 0.3609 -0.033815 -0.38096 -0.42022 -0.024845 -0.32293 0.016102 0.25894 -0.35316 -0.15488 0.17783 0.087657 -0.10785 -0.074475 -0.020894 -0.040358 -0.30522 0.38687 -0.053391 -0.11701 -0.31044 0.14521 -0.30081 0.076988 -0.20637 0.46222 0.19254 0.16961 -0.14934 0.073543 0.28533 0.0032565 0.38271 0.41751 0.5557 -0.084377 0.28803 -0.024855 -0.14274 0.11693 0.0067195 0.068055 -0.22916 -0.46212 0.20267 -0.45816 -0.17313 -0.065561 0.18873 0.060417 0.3453 0.11501 0.11345 -0.029217 0.11499 0.102 -0.3719 -0.16513 0.47807 0.53439 -0.50251 -0.083594 0.49818 -0.51165 -0.37372 -0.22244 -0.39892 -0.1355 -0.17308 -0.10551 0.16444 0.086684 -0.037968 0.40315 0.49731 0.23051 0.60496 -0.27149 0.28099 -0.057651 0.18188 -0.14996 -0.17923 -0.47791 -0.41043 0.32748 0.28971 -0.24626 -0.35532 0.083862 -0.3395 0.059785
train 0.24216 0.39154 -0.36615 -0.28039 0.021716 0.25916 0.28097 0.30986 0.83842 -0.37 -0.23313 -0.0072069 -0.20422 0.29376 0.55501 -0.46718 0.035141 -0.2162 0.029454 -0.13209 0.20664 0.60524 -0.45987 -0.25391 -0.34685 0.12608 0.55956 0.31895 -0.1484 -0.26289 -0.084416 0.32719 0.33667 0.25011 -0.34587 -0.21594 -0.14706 0.0067189 -0.0042286 -0.19698 0.43067 0.4614 0.077456 0.15342 0.15133 -0.17457 0.44872 -0.16971 0.12139 -0.045187 -0.3215 0.19424 -0.28472 -0.35879 -0.2002 0.058233 -0.16843 0.11909 -0.20521 -0.62553 -0.098365 -0.32772 0.14682 -0.42135 -0.029085 0.021748 -0.05868 -0.084008 -0.088615 0.0067038 0.50981 0.53014 0.075374 -0.32528 0.11097 0.010554 -0.33864 -0.38972 0.026086 0.21359 -0.36831 -0.35309 0.35982 0.40932 0.074777 -0.03802 0.050083 -0.064109 0.38635 0.084788 -0.14794 -0.10337 0.16364 0.15481 0.32032 -0.5026 -0.27559 -0.14603 -0.14109 -0.14596 0.12071 -0.25215 -0.26726 -0.27948 -0.0418 -0.074135 0.033288 0.050416 0.52078 0.5186 0.039934 0.2453 0.38496 0.21372 -0.087235 -0.24107 0.23666 0.55264 -0.33059 0.024919 0.51486 -0.13784 -0.22828 -0.55735 0.051566 0.34359 -0.026561 -0.23976 0.16521 -0.12674 -0.37114 -0.41728 0.42885 -0.65577 -0.26007 0.020193 -0.12505 0.078136 0.60804 0.19826 -0.17032 0.011645 -0.03366 -0.11055 -0.13868 -0.18044 0.063407 -0.2547 -0.33158 0.045367
area -0.027484 0.44453 -0.12981 -0.64324 -0.20743 -0.0097115 -0.26827 0.15517 0.27639 0.056403 0.22749 -0.10055 -0.020514 0.15162 0.24784 -0.34305 0.12477 0.26662 0.41916 0.065425 0.16101 0.21546 -0.065619 -0.059263 -0.13644 -0.24161 0.3715 0.0039179 0.28553 0.25487 -0.48393 -0.051553 -0.20997 0.37009 -0.15953 -0.031929 -0.17168 -0.03841 -0.49303 0.0013745 0.14143 0.46927 0.25344 -0.30164 -0.065643 0.036265 -0.054401 0.37782 0.12225 0.079992 0.069372 -0.34041 -0.25684 -0.4678 -0.42772 0.21166 0.084254 0.0046745 0.086229 -0.22213 -0.19173 -0.45919 -0.10689 -0.079286 0.41835 0.14706 -0.32174 0.12574 0.13098 -0.051464 0.31963 0.43551 0.3598 0.055398 -0.17911 0.095027 0.41691 -0.21496 0.10969 0.16729 0.020045 0.098426 0.38478 0.3578 0.2269 0.1451 0.35939 0.089428 0.32092 0.24779 -0.20015 -0.082934 0.20217 -0.20807 -0.24414 0.14524 -0.12822 -0.18398 -0.66706 0.27522 -0.054086 -0.28461 0.12725 -0.42425 0.060451 -0.16606 -0.17328 0.21022 0.23047 0.10498 0.19784 0.047888 0.34318 0.046454 0.43073 -0.29672 0.26725 -0.18623 -0.13119 -0.093156 0.369 0.074878 0.14478 -0.31077 -0.0088864 0.12388 0.0094714 -0.28521 0.15192 0.37927 -0.47811 -0.0071103 -0.087728 -0.0036156 0.10253 -0.46973 -0.0065902 0.43565 0.032926 -0.053045 -0.026239 -0.59299 0.22827 0.10808 -0.23473 0.083807 -0.4603 0.1789 -0.31667 -0.30842
image -0.21166 0.062967 0.13955 -0.019938 0.19383 0.55485 -0.14457 0.37161 0.40718 -0.34985 -0.11556 -0.15332 -0.25787 0.14549 0.12927 0.54683 0.23328 0.2905 -0.11285 -0.23815 -0.01036 0.24074 -0.4562 0.11692 -0.21873 0.21537 0.36286 -0.14098 0.25709 -0.34607 0.12162 0.14499 0.067374 0.16103 -0.23396 0.51699 -0.13797 0.13141 -0.37159 -0.0024185 0.081568 0.24256 0.28214 -0.0090126 0.15289 -0.32086 0.13032 0.39504 0.44934 -0.54175 0.33021 -0.5558 -0.5445 -0.20597 0.65038 -0.2907 0.35333 -0.62959 -0.31775 -0.029336 0.21199 -0.24843 -0.17534 -0.10236 -0.048248 0.18916 -0.55987 -0.0028078 -0.3634 0.078727 0.13616 0.3535 -0.42256 0.0054098 0.0058841 0.25077 -0.052765 0.46699 0.13248 0.02456 -0.19976 0.2181 0.62563 0.051078 0.14943 0.1345 0.39239 0.2187 0.04858 -0.30481 -0.26521 0.32825 0.21602 0.2236 -0.15416 -4.4184E-4 -0.068709 0.38538 0.0095827 -0.69993 -0.10883 0.1384 0.45303 -0.46546 -0.28145 -0.24532 -0.66851 -0.018571 0.018248 -0.37509 -0.034645 0.062943 -0.22629 0.1834 0.18688 0.18785 0.47001 0.31975 0.093269 0.034397 0.18564 -0.028536 0.43606 0.048572 -0.059343 0.0085614 0.049797 -0.0296 0.094248 0.55448 0.22063 -0.12258 -0.3426 -0.046444 -0.13643 0.27197 0.071439 4.6045E-4 -0.21367 0.15261 -0.43974 -0.28792 0.36739 -0.0078479 0.23212 0.088631 -0.35628 -0.074317 -0.3679 -0.068443
murder -0.10777 -0.35439 0.6834 0.37055 -0.45552 -0.50117 -0.70049 0.57765 0.43484 -0.1859 0.43686 -0.41888 0.20574 -0.33742 0.07602 0.11261 0.25772 0.10939 -0.04825 0.58352 -0.2584 -0.061315 -0.21496 -0.0092691 -0.078737 -0.04393 0.51085 -0.060768 -0.24567 -0.17093 -0.34346 -0.048034 -0.22077 0.54543 -0.34895 0.021075 -0.60327 0.19709 -0.56058 0.28807 0.31764 0.0092052 0.32419 0.18146 -0.73889 -0.065307 0.33792 0.08599 0.3027 -0.33365 0.68469 0.063881 -0.3134 -0.31726 -0.07497 -0.35373 0.098355 -0.36567 0.14842 -0.62236 -0.53338 -0.33694 0.0040106 0.18888 0.42949 -0.21374 -0.17853 -0.5121 0.55826 -0.15586 0.34662 0.38497 -0.015844 -0.46173 -0.14059 -0.33941 0.052314 -0.47096 0.52982 0.0066993 0.09008 0.12536 -0.052373 0.36465 -0.35346 0.012524 0.46708 0.28918 0.1855 1.1695 0.16945 0.38694 -0.1143 -0.28991 0.56333 -0.41742 -0.64148 -0.13133 0.15653 0.1485 -0.073021 -0.25074 0.22941 -0.31831 0.11221 0.54817 -0.16573 0.53134 -0.38463 -0.085743 0.19962 0.94319 0.23663 0.16689 0.3109 -0.21178 0.13718 0.1047 -0.18087 0.17237 -0.010861 0.42808 0.28836 -0.18876 0.016375 0.38077 0.45059 -0.27032 0.567 0.083102 0.17434 -0.25975 0.30481 -0.34158 -0.02421 -0.10866 -0.15324 -0.068212 -0.26678 -0.26125 -0.71716 0.33084 -0.2065 0.035845 -0.090773 0.053281 -0.059174 -0.022833 -0.21673 0.057319
journey 0.013851 0.33867 -0.062175 -0.58219 -0.047008 -0.074614 0.24549 -0.010178 0.29067 -0.45359 0.1239 0.09882 -0.42419 0.083635 0.5172 0.23849 0.2292 -0.011201 -0.51276 0.081304 -0.0092137 0.16713 -0.46655 -0.6039 0.18861 -0.0044577 0.58027 -0.0082825 -0.39599 -0.099165 0.035041 -0.020937 0.16233 0.17198 -0.6257 0.016348 -0.11889 0.17278 -0.091186 0.53972 0.57036 0.52772 0.45928 -0.13113 -0.24128 0.016191 -0.068688 0.27551 -0.017978 0.19172 -0.16956 -0.12923 -0.1768 -0.1125 0.44348 0.042589 -0.070811 0.13066 0.055348 -0.39773 -0.34852 -0.0080561 -0.071324 0.50096 -0.25282 0.0096622 0.30995 -0.026574 0.72153 -0.17101 0.49742 0.6186 -0.27871 -0.35029 -0.1865 -0.26514 -0.35051 -0.11612 -0.28564 0.28867 -0.12015 -0.10279 0.26025 0.18463 -0.015655 -0.1377 -0.15518 0.63997 0.42672 0.25519 -0.28478 0.10555 -0.039997 0.46744 0.35456 0.04765 -0.068751 0.13797 -0.22965 -0.29982 -0.018572 0.31883 -0.009152 0.039459 -0.12152 -0.23463 -0.59968 0.20924 0.358 0.094248 -0.11902 0.45109 -0.19537 0.23277 -0.16192 -0.34518 0.48219 0.32995 -0.16613 -0.10554 0.512 0.0019289 0.018742 -0.087647 0.12169 0.72549 -0.023289 -0.061446 0.47419 0.31203 0.049838 -0.096063 0.41577 -0.53027 0.0068422 0.1644 -0.23295 -0.39037 0.49339 0.07544 -0.19159 -0.056583 0.43808 0.063636 0.12275 -0.18685 -0.015938 -0.088398 -0.19901 -0.16099
minister -0.30487 -0.26817 -0.20859 0.062021 -0.087847 -0.11377 0.24558 0.20787 0.2748 -0.19219 -0.12937 0.018201 0.47929 0.32784 0.47419 0.39913 0.19781 -0.17104 0.43981 0.13209 -0.36239 0.42706 -0.24246 0.053546 0.10408 0.14168 0.075864 -0.075824 0.089719 -0.18614 -0.0054449 0.19424 -0.28361 -0.11213 0.007877 -0.054962 0.10511 -0.25596 -0.7206 0.070118 0.07491 0.098733 0.6733 -0.041432 -0.34403 -0.32435 -0.81568 0.44448 0.085144 -0.23353 0.54704 -0.42321 -0.10523 0.051671 -0.044859 0.017937 -0.026401 -0.21585 0.60915 -0.49694 -0.04136 -0.48268 0.20626 0.25014 0.14339 -0.14957 0.19749 -0.6048 0.020993 0.36047 0.10882 0.58274 0.50752 -0.18501 -0.60526 -0.13999 0.043962 0.13451 0.249 -0.097789 -0.23338 -0.2322 0.27607 -0.0017879 -0.013577 0.15916 -0.092075 -0.68356 0.31582 0.32964 0.54367 0.027997 0.32982 -0.17247 0.74051 0.21894 -0.48492 -0.33076 0.26753 -0.15137 -0.055623 -0.40192 0.053807 -0.18183 0.17098 -0.17374 -0.15886 0.32308 -0.38281 0.48731 0.012892 0.21766 -0.28095 0.061846 -0.62094 0.68003 -0.047451 -0.039667 -0.1662 0.095318 0.2106 -0.40844 -0.95901 -0.15434 -0.66156 -0.085391 0.26355 -0.16236 9.1891E-4 0.049336 -0.032269 -0.1955 0.12372 -0.54588 0.02188 -0.088127 -1.0282 -0.0065151 -0.96684 -0.19864 -0.15944 -0.70784 -0.054676 -0.12277 -0.063458 -0.43487 -0.55638 -0.11314 -0.46637 -0.15745
planet 0.15811 0.16264 -0.0079627 -0.25476 -0.14133 0.095762 0.28239 0.503 0.10657 -0.54341 -0.12525 -0.39267 -0.086732 -0.34989 -0.026526 0.20768 0.4988 0.15077 -0.14465 0.042731 -0.26902 0.44784 -0.20578 -0.29038 -0.07047 0.35664 -0.076179 -0.34924 -0.1929 -0.27519 -0.32396 0.37367 -0.35939 0.32786 -0.35802 0.31558 0.16909 0.0024104 -0.35368 0.024853 0.22584 0.36379 0.43298 -0.62696 -0.031372 0.12018 0.75703 0.14615 0.26068 0.16448 0.22266 -0.34646 -0.71825 0.24227 0.46517 -0.10485 0.51033 0.43051 0.1004 -0.36635 0.039588 -0.24176 -0.57081 0.5304 0.049959 -0.9118 0.3612 0.029481 0.35093 -0.081219 0.46611 0.47124 -0.11037 0.27434 0.2694 0.21438 0.61561 0.27105 -0.11202 0.22597 0.1184 -0.042582 0.27809 0.38351 -0.013259 -0.55423 0.22872 0.29247 0.29234 0.020219 -0.015972 0.22887 0.35447 0.37426 -0.064347 -0.056426 -0.12931 0.32835 -0.67244 -0.18384 -0.22919 -0.036262 0.45162 0.39594 0.18487 0.2081 -0.25649 0.071773 -0.12866 0.13186 -0.2118 0.36937 -0.11248 0.13914 -0.20455 -0.1382 0.26793 -0.16593 -0.35444 -0.27595 0.33677 -0.18534 0.33283 -0.41016 -0.19934 -0.43542 -0.13008 0.39109 0.096677 0.52611 0.2254 0.27974 0.18354 -0.26845 -0.33966 -0.029486 -0.076372 0.097174 -0.33798 0.33849 -0.22433 -0.51433 0.54098 0.3236 -0.21932 0.052051 -0.092552 -0.34828 -0.33622 0.3039
article 0.70271 -0.10501 -0.12318 0.1674 0.26807 -0.065791 -0.45914 0.017021 0.69695 0.11686 -0.070168 -0.24242 0.305 -0.51457 -0.54422 -0.051605 0.1277 -0.62181 -0.29684 -0.15185 -0.20936 -0.12607 -0.1992 -0.167 -0.091206 0.12751 0.28533 -0.084709 -0.57824 -0.041769 0.26518 -0.044877 0.0021467 0.042038 -0.35364 0.22527 -0.083582 0.13093 -0.60871 -0.27456 -0.035024 0.27432 1.19 -0.36656 -1.0889 -0.088509 0.54044 0.20738 0.19265 -0.35891 0.044639 -0.56096 -0.28974 -0.89554 0.28808 -0.014135 0.48664 -0.054346 0.10189 0.085731 -0.22615 -0.87087 -0.064794 0.5681 0.56654 -0.13803 -0.46174 0.14244 0.71364 0.42412 0.46289 0.17978 0.92938 0.18319 0.25024 0.95251 -0.29086 -0.25507 0.51578 0.45544 -0.22237 -0.72225 0.0095731 -0.07049 0.085642 0.12053 0.16425 0.53222 -0.23755 -0.098062 0.24179 0.64333 -0.61021 -0.15152 0.49675 -0.081668 -0.56797 -0.10684 0.42625 0.1845 0.44985 0.68413 -0.3881 -0.20449 -0.021121 -0.1668 -0.47481 0.46686 0.091956 -0.37368 -0.72982 0.046823 -0.10044 0.28364 0.23916 -0.13146 0.34401 0.19317 0.27617 -0.11133 -0.048311 -0.689 -0.32253 -0.034196 0.28244 0.097379 0.30624 -0.078494 -0.17739 0.4946 -0.10992 -0.33385 0.051447 0.19882 -0.14207 -0.14098 0.10286 0.32318 -0.15085 -0.075355 -0.12835 0.096808 -0.035739 -0.17441 -0.050629 -0.42196 -0.95229 -0.22518 0.38058 -0.47998
anxiety -0.40204 0.052095 -0.36147 -0.43766 -0.23077 0.15859 -0.42107 0.11322 0.15192 0.3147 0.24347 -0.25138 -0.75863 0.31764 0.42217 0.20482 0.14067 -0.31327 -0.030068 0.0082237 0.27441 0.042624 -0.63507 0.13798 0.14618 0.34262 0.25709 -0.13678 -0.010992 -0.1407 -0.6391 0.5151 -0.07243 0.021447 0.46322 0.011979 0.18657 0.26022 -0.29227 0.072568 0.56296 -0.47443 0.31325 -0.5112 -0.039623 0.11338 -0.21314 -0.0561 -0.074136 -0.52436 0.097778 -0.5376 -0.032323 -0.12442 -0.57667 0.14437 -0.084514 -0.026967 -0.23725 -0.39301 0.035496 -0.054385 -0.17867 -0.33605 0.66715 -0.49272 -0.070288 0.29599 0.54142 0.42222 0.1251 0.52288 -0.17718 -0.23628 -0.044303 -0.33644 0.14098 0.043709 -0.37816 -0.024696 -0.073569 -0.022942 -0.15566 0.064081 -0.18195 0.072629 0.30701 0.13628 -0.0010582 -0.17875 0.13308 -0.064656 -0.29206 -0.34081 -0.0019674 -0.16547 -0.32222 0.41033 -0.085814 -0.018661 -0.40388 0.057599 -0.07694 -0.24343 -0.18244 0.241 -0.36096 0.2975 0.45836 -0.054938 -0.05448 0.43868 -0.29542 -0.10976 -0.018358 0.32311 0.53055 0.3276 -0.43856 -0.0045124 -0.29556 -0.4618 0.14308 -0.05739 0.40985 0.68642 0.23853 0.40987 -0.74727 0.37594 -0.32529 -0.21719 -0.19214 -0.19386 -0.080998 0.49545 0.11301 -0.10707 -0.46524 0.29833 -0.16461 0.21084 0.43059 -0.19175 -0.2984 -0.4242 -0.26378 0.40062 -0.17066 -0.097745
month 0.13588 -0.21622 -0.27762 0.068153 -0.047933 -0.34506 0.14172 -0.12285 0.27072 0.064485 -0.22622 0.22213 0.11555 -0.067086 0.10408 -0.32685 0.14308 -0.33102 0.041998 0.22939 -0.055216 0.1409 -0.132 0.24257 0.54845 0.014288 0.0080022 0.15246 0.18234 -0.028882 -0.023105 -0.19033 0.01623 -0.27807 -0.35507 0.10845 0.37636 0.22852 -0.56678 0.16379 -0.032005 0.00224 0.015807 0.07177 0.097661 -0.39686 -0.40739 0.17886 0.40546 0.055638 0.073846 -0.3762 -0.010528 -0.0023099 -0.063533 -0.19861 0.48327 -0.36977 0.12645 -0.12641 0.20825 -0.48875 -0.29231 0.025948 0.036374 0.082984 -0.15418 -0.068413 0.4046 -0.11232 0.29977 0.033354 -0.16185 -0.22769 -0.46373 0.17408 0.064643 -0.2953 -0.066974 0.31285 0.19321 -0.21542 0.037688 -0.096459 -0.4164 -0.17489 -0.083497 0.10491 0.6739 -7.3561E-4 0.055782 0.25608 0.32073 -0.08398 0.39931 -0.039589 -0.38567 0.48689 -0.49987 0.2504 -0.097246 -0.65733 -0.3753 -0.50209 3.2207E-4 0.47691 -0.52237 0.1552 0.21836 0.34703 0.24597 -0.32587 0.09454 0.042763 0.50017 0.028068 0.15332 0.027829 -0.13952 -0.070986 0.023517 0.028725 0.17375 0.053906 -0.17588 -0.14303 0.039132 -0.10558 -0.26556 0.14778 -0.2285 -0.26664 0.041459 -0.30496 0.087477 0.2593 -0.16582 -0.032777 -0.12204 0.10665 -0.41944 -0.18456 0.28967 0.16546 -0.11136 -0.24797 -0.071526 -0.29848 0.093508 -0.31458
carnivore -0.15919 -1.9808E-5 -0.088661 -0.26109 -0.17766 0.22957 -0.25131 0.47092 0.13758 -0.1846 0.31616 -0.23086 0.20482 0.050193 0.073357 -0.084226 0.2901 0.24986 -0.34657 -0.20871 -0.1819 0.365 -0.15926 -0.21294 -0.044497 -0.087779 0.039814 -0.05397 -0.17703 -0.38672 -0.038978 0.40636 0.09594 -0.00236 -0.084106 0.13765 0.15289 0.087907 -0.373 -0.099537 0.066482 -0.16706 0.14814 -0.48836 -0.19211 -0.36772 0.025823 0.14582 -0.011642 -0.6152 0.19303 -0.37895 0.013511 -0.070995 -2.9713E-4 0.10356 -0.10563 -0.081027 -0.35984 -0.24899 -0.052313 -0.11317 -0.05545 0.13363 0.24329 -0.20373 0.13521 -0.1189 0.15119 -0.34302 0.45416 0.34386 -0.17014 0.022602 0.021384 0.33478 0.30718 -0.043921 0.024426 0.092851 0.14605 0.20533 0.014642 0.2857 0.10574 0.048738 0.088504 0.029238 -0.17755 0.16232 -0.061462 0.085471 0.24009 0.5556 -0.069391 -0.043928 -0.1795 0.17191 -0.34392 -0.14641 -0.058361 0.11106 0.19608 0.11251 -0.014926 -0.042474 -0.39471 0.25239 0.27781 0.043797 0.15658 0.27658 -0.19761 0.30711 -0.11814 -0.15409 0.30682 -0.093412 0.066177 -0.42818 0.53105 -0.13275 0.086963 -0.19024 0.055811 0.099009 0.019191 0.14493 -0.21745 0.70696 0.024312 -0.26959 0.25927 -0.042788 -0.16839 0.11322 0.19817 -0.18464 -0.12061 -0.31773 -0.29368 0.10232 -0.003143 0.41053 0.12857 -0.093222 -0.31664 -0.42104 -0.39092 -0.15609
